extern double conv2_weight[32][64][3][1] = {{{{-0.15177254},{-0.13042307},{-0.1253597}},{{-0.0717602},{-0.10878286},{-0.12069269}},{{-0.00814373},{-0.13976383},{-0.15667309}},{{-0.11174585},{-0.22186172},{-0.15529956}},{{0.006907464},{-0.065708764},{-0.067872204}},{{-0.1734081},{-0.06275028},{-0.0767881}},{{-0.16901264},{-0.19855528},{-0.058993127}},{{-0.070492506},{-0.10781361},{-0.13319603}},{{-0.10481298},{-0.1659542},{-0.1347869}},{{-0.09492344},{-0.11912309},{0.0204512}},{{-0.15180504},{-0.099074274},{-0.1435472}},{{-0.1869885},{-0.053017285},{-0.08460687}},{{-0.24227251},{-0.21571136},{-0.2798549}},{{0.014143515},{-0.004769671},{-0.050496545}},{{-0.017286245},{-0.13215716},{-0.17705272}},{{-0.1265484},{-0.11301343},{-0.09207233}},{{-0.08598969},{-0.08479791},{-0.05713501}},{{-0.18889236},{-0.19841315},{-0.22036745}},{{0.031818956},{-0.08089674},{0.030783487}},{{-0.120073766},{-0.0779117},{-0.051992368}},{{-0.08939729},{-0.06660354},{-0.14108533}},{{0.02178671},{-0.01498974},{-0.085200906}},{{-0.101686746},{-0.1846677},{-0.06606711}},{{-0.19822377},{-0.10136968},{-0.17048427}},{{-0.21507764},{-0.16856667},{-0.031618536}},{{-0.19113025},{-0.0747959},{-0.090522915}},{{-0.21326354},{-0.124346904},{0.12768191}},{{-0.18436322},{-0.15989333},{-0.1778031}},{{0.31826988},{0.39617842},{0.44178277}},{{0.30682784},{0.2963382},{0.32726675}},{{-0.11362951},{-0.07449103},{-0.10487159}},{{-0.28043666},{-0.18206431},{-0.3309488}},{{-0.20814542},{-0.21333241},{-0.035510592}},{{0.14557767},{0.21815291},{0.24355383}},{{-0.13358171},{-0.16341628},{-0.18090586}},{{-0.055511054},{-0.014568859},{-0.069582745}},{{-0.01391721},{0.068347335},{-0.05596529}},{{-0.17490748},{-0.25031966},{-0.281809}},{{-0.09700307},{-0.10759244},{-0.16361393}},{{-0.1693948},{-0.085352816},{-0.09354598}},{{-0.13579331},{-0.06593767},{-0.10728011}},{{-0.04862815},{-0.105124764},{-0.1295258}},{{-0.048376616},{-0.027865887},{-0.020350404}},{{0.50180686},{0.46528524},{0.5158433}},{{-0.0139635},{-0.068412036},{-0.11818252}},{{-0.09351443},{-0.12712955},{-0.12672277}},{{0.02019376},{0.19015788},{0.1838456}},{{-0.19975331},{-0.10275584},{-0.14431629}},{{-0.094334975},{-0.059933823},{-0.034753237}},{{-0.19209221},{-0.13853772},{-0.11517855}},{{-0.0398452},{-0.057030648},{-0.048110284}},{{-0.09293239},{-0.0457174},{-0.09058194}},{{-0.17493294},{-0.27607435},{-0.28706196}},{{-0.12658544},{-0.18951213},{-0.1237119}},{{-0.09268815},{0.0067833564},{-0.06702362}},{{-0.13743865},{-0.088183224},{-0.11668407}},{{-0.09896545},{-0.07185084},{-0.06745498}},{{-0.111545034},{-0.07117798},{-0.17440106}},{{-0.076383136},{-0.07497585},{-0.12597522}},{{-0.10313036},{-0.10451025},{-0.03552933}},{{0.017062144},{-0.031299006},{0.049415078}},{{-0.15505242},{-0.15808299},{-0.11784701}},{{-0.11952889},{-0.19123104},{-0.21267511}},{{0.27168643},{0.29536465},{0.2701802}}},{
{{-0.11918637},{-0.11035058},{-0.20184585}},{{-0.16425699},{-0.15028864},{-0.16987841}},{{-0.021872496},{-0.099427074},{-0.09362047}},{{-0.29519412},{-0.19215797},{-0.22138129}},{{-0.05060469},{-0.05921999},{-0.044519205}},{{-0.062592916},{0.05971281},{0.05670998}},{{-0.06076777},{-0.14587274},{-0.101976305}},{{-0.10871065},{-0.09545835},{-0.0547896}},{{-0.16379689},{-0.15424801},{-0.18815005}},{{-0.07675539},{-0.011915789},{0.095259935}},{{-0.07144973},{-0.10934048},{-0.16586667}},{{-0.076005295},{-0.048620503},{-0.069948584}},{{-0.1351197},{-0.19663046},{-0.08720176}},{{-0.059824135},{-0.029170875},{-0.020894067}},{{-0.055641346},{-0.08809392},{-0.114540316}},{{-0.063650906},{-0.12225117},{-0.096591346}},{{-0.064784415},{-0.17827834},{-0.119601235}},{{-0.2716249},{-0.2944985},{-0.18687926}},{{-0.04167984},{-0.037202932},{0.019479508}},{{-0.19497438},{-0.106586844},{-0.12530482}},{{-0.079035826},{-0.16980012},{-0.12823467}},{{-0.05025092},{-0.06478373},{-0.028302312}},{{-0.09898619},{-0.07561376},{-0.15777278}},{{-0.14306927},{-0.18618785},{-0.18018138}},{{-0.05401391},{0.04802844},{0.08119291}},{{-0.040746264},{-0.012601934},{-0.035215866}},{{-0.116132624},{0.03927045},{0.17849818}},{{-0.0639967},{-0.121204115},{-0.12765796}},{{0.3506349},{0.29196948},{0.27540606}},{{0.42870492},{0.46453306},{0.48578134}},{{-0.15320149},{-0.12947059},{-0.09791188}},{{-0.32125047},{-0.3583573},{-0.21899901}},{{-0.09525623},{-0.09242813},{0.016387353}},{{0.3391608},{0.32260057},{0.29125854}},{{-0.04388493},{0.029590318},{-0.05873214}},{{-0.11683892},{-0.052454215},{-0.00400497}},{{0.06399503},{-0.00040647315},{0.08834013}},{{-0.21969058},{-0.21417359},{-0.10003919}},{{-0.14274165},{-0.17365596},{-0.13963251}},{{-0.24997894},{-0.2223942},{-0.11643572}},{{-0.03929425},{-0.17655985},{-0.055003356}},{{-0.09705377},{-0.16312274},{-0.13502397}},{{-0.0141602475},{0.0058435835},{0.06394866}},{{0.29257864},{0.20909312},{0.18740113}},{{-0.17919831},{-0.1589261},{-0.15627345}},{{-0.14010346},{-0.15278924},{-0.18814898}},{{0.08898637},{0.21364087},{0.18385233}},{{-0.12543991},{-0.08949121},{-0.10708912}},{{-0.01652808},{0.0046310653},{0.09463542}},{{-0.13838375},{-0.112637244},{-0.08659575}},{{-0.1060218},{-0.07049495},{-0.029953081}},{{-0.10982773},{-0.10070841},{-0.13372265}},{{-0.0148325795},{0.044518147},{-0.016860647}},{{-0.13258502},{-0.13920687},{-0.10120584}},{{-0.1799494},{-0.12570813},{-0.12934051}},{{-0.17222111},{-0.065249},{-0.089058034}},{{-0.071929514},{-0.054614082},{-0.0920065}},{{-0.15750886},{-0.10840497},{-0.1336542}},{{-0.17468454},{-0.08898681},{-0.10450885}},{{-0.5216489},{-0.40451172},{-0.33120036}},{{-0.11809431},{-0.07858923},{0.03376082}},{{-0.14842722},{-0.10618107},{-0.09174502}},{{-0.21772863},{-0.18103191},{-0.11083366}},{{0.4308568},{0.38025096},{0.465681}}},{
{{-0.03148938},{0.07823777},{0.030255463}},{{-0.16020654},{-0.038390357},{-0.04805647}},{{-0.19636294},{-0.15492047},{-0.21510728}},{{-0.05591373},{-0.045678098},{-0.07970993}},{{0.020214366},{-0.036762036},{-0.067658514}},{{-0.2220228},{-0.13392693},{-0.20572956}},{{0.021677164},{-0.008869369},{-0.020305146}},{{-0.037673745},{-0.14121225},{-0.065243974}},{{-0.013677233},{0.055205062},{-0.015173258}},{{-0.20839511},{-0.15160728},{-0.13126126}},{{0.025858304},{0.103782825},{0.0146802515}},{{-0.00074975984},{0.050547946},{0.062273327}},{{-0.29545945},{-0.3150998},{-0.1994207}},{{0.1007808},{0.06691621},{0.07120024}},{{0.06417719},{-0.030465405},{0.0034139}},{{0.10776838},{0.04104916},{0.11789586}},{{0.08187239},{0.055940244},{0.020308373}},{{-0.27728766},{-0.21931164},{-0.27776924}},{{0.04000724},{0.029205043},{-0.0063699167}},{{-0.08940283},{0.022706471},{0.037573352}},{{0.050602183},{0.09507266},{-0.013486643}},{{0.022046287},{-0.059788287},{-0.055369765}},{{-0.024046946},{0.057747856},{0.105564244}},{{0.057519782},{0.033471685},{0.07864593}},{{-0.31045142},{-0.32677853},{-0.37227997}},{{-0.23596777},{-0.23016585},{-0.2511287}},{{-0.21736759},{-0.29380813},{-0.35630438}},{{0.105249375},{0.021990879},{0.0035776952}},{{-0.18869087},{-0.2143742},{-0.13491735}},{{-0.16198309},{-0.15287492},{-0.13711968}},{{0.083192185},{0.031429935},{0.02917981}},{{-0.17317978},{-0.231424},{-0.17496601}},{{-0.26271746},{-0.26533806},{-0.23773412}},{{-0.04572891},{-0.069409996},{-0.04768642}},{{-0.029103648},{0.004095874},{-0.0683665}},{{0.057202715},{0.09739605},{0.11777136}},{{0.031690538},{0.06385677},{0.088321045}},{{-0.12904309},{-0.06689926},{-0.10326237}},{{0.07270697},{-0.008689361},{0.11739054}},{{-0.015251784},{-0.02136748},{-0.077831574}},{{0.04399496},{-0.027538104},{-0.02446047}},{{0.073568076},{-0.032151323},{0.11220605}},{{-0.2501194},{-0.31601393},{-0.3463189}},{{-0.14775723},{-0.13149019},{-0.109783426}},{{-0.1895113},{-0.2492424},{-0.26310045}},{{0.0039087743},{0.11789107},{0.06367578}},{{-0.0940474},{-0.062876776},{-0.16313235}},{{0.09315394},{0.079129055},{0.014922677}},{{0.031291716},{0.02126677},{-0.08927836}},{{0.016370803},{0.07037974},{-0.009503372}},{{-0.030434685},{-0.07046296},{0.039544396}},{{0.0061278543},{-0.014305974},{-0.05832593}},{{-0.15919395},{-0.19520165},{-0.29266202}},{{0.09641672},{0.05106932},{0.018840473}},{{-0.09050425},{0.017475262},{-0.0070608775}},{{0.0842587},{0.07520898},{0.09415414}},{{0.04887556},{0.07627766},{0.073438786}},{{-0.014139137},{0.056234058},{-0.0005376391}},{{0.09032776},{0.0107800085},{0.10818277}},{{-0.22943231},{-0.2958159},{-0.2209415}},{{-0.23646045},{-0.30281046},{-0.27335057}},{{-0.013233929},{0.080888025},{0.034990028}},{{-0.25055397},{-0.23293488},{-0.23267366}},{{-0.03843523},{-0.091640174},{-0.12723829}}},{
{{0.019121181},{-0.023438025},{-0.07447398}},{{-0.0064574643},{-0.0034689356},{-0.09703626}},{{-0.1616224},{-0.122973345},{-0.17637065}},{{-0.194827},{-0.22093946},{-0.25653666}},{{-0.1925697},{-0.11104262},{-0.063642405}},{{-0.29002696},{-0.15520976},{-0.21005543}},{{-0.052876476},{-0.06342217},{-0.025530295}},{{-0.058618184},{0.014741309},{-0.032074414}},{{0.019026183},{-0.07137247},{-0.062038675}},{{-0.0782484},{-0.12691411},{-0.10895662}},{{0.07171263},{0.04071147},{-0.043768063}},{{-0.0024774408},{0.04090559},{-0.08291316}},{{-0.21307512},{-0.10846136},{-0.14249292}},{{-0.13833702},{-0.19767725},{-0.08294287}},{{0.0135229295},{0.06795562},{-0.06365308}},{{-0.0032212606},{-0.0663643},{0.026409827}},{{0.01901414},{-0.015195286},{-0.08395452}},{{-0.15432249},{-0.05262183},{-0.13136965}},{{-0.1585639},{-0.17364325},{-0.23710212}},{{-0.06667896},{-0.0072872327},{-0.0072516515}},{{0.027451865},{0.017186439},{0.012432093}},{{0.04950106},{0.07076591},{0.035122517}},{{-0.025875492},{-0.014028057},{0.002364444}},{{0.07310555},{0.035385806},{-0.07527188}},{{-0.17153612},{-0.09686955},{-0.14228551}},{{-0.22246578},{-0.1260789},{-0.16594614}},{{-0.14770804},{-0.17441417},{-0.1250292}},{{0.03448627},{-0.032643903},{-0.054433126}},{{-0.020611629},{-0.06895263},{-0.08406194}},{{0.00013065009},{-0.06440612},{-0.059463453}},{{-0.059769798},{-0.04405314},{-0.06001215}},{{-0.15988149},{-0.14798614},{-0.048640672}},{{-0.17678723},{-0.17215145},{-0.19266525}},{{-0.1535639},{-0.03680863},{-0.08923974}},{{-0.08931432},{-0.044649396},{-0.070698306}},{{-0.020184103},{0.0038694039},{-0.06847949}},{{-0.13810404},{-0.012889388},{-0.14146769}},{{0.0032708193},{-0.026057038},{-0.027240159}},{{-0.044509966},{-0.0462405},{-0.074363105}},{{-0.061333593},{-0.07769939},{-0.037518434}},{{0.011913818},{0.037898693},{-0.0764465}},{{0.05091508},{-0.054044764},{0.021514757}},{{-0.1585666},{-0.05700202},{-0.17063402}},{{0.22933294},{0.20573282},{0.11844074}},{{-0.21125138},{-0.12836841},{-0.08548731}},{{-0.07150594},{-0.038341228},{0.0032451781}},{{-0.035135176},{-0.01936109},{-0.048027843}},{{0.07280538},{-0.0025065707},{-0.024297677}},{{-0.057399254},{-0.0061947894},{-0.06869349}},{{0.07873216},{0.0146268215},{0.025746668}},{{-0.15422752},{-0.122032434},{-0.15082367}},{{-0.16153796},{-0.14576356},{-0.14622413}},{{-0.20278174},{-0.14577265},{-0.18430445}},{{0.06907661},{0.030468008},{-0.04739531}},{{-0.11877761},{-0.17683555},{-0.036867417}},{{-0.028047526},{-0.057506647},{0.016298382}},{{-0.007511586},{0.043719042},{0.006548709}},{{-0.018510766},{-0.045441654},{0.04060759}},{{-0.028170794},{-0.039208658},{-0.06814956}},{{-0.11034279},{-0.19040869},{-0.13799836}},{{-0.20784663},{-0.13218525},{-0.1934552}},{{0.02404865},{0.05751395},{0.010280413}},{{-0.16169974},{-0.17382552},{-0.12969396}},{{0.06351568},{0.035488687},{-0.065998815}}},{
{{-0.14892891},{-0.11520012},{-0.12984893}},{{-0.016860053},{-0.1600138},{-0.12192527}},{{-0.0022155705},{0.067313366},{-0.007400605}},{{-0.079331934},{-0.157081},{-0.18216908}},{{-0.25306806},{-0.26092523},{-0.16896018}},{{0.05117137},{0.045732982},{0.03404262}},{{-0.16894893},{-0.16886766},{-0.20330775}},{{-0.1547847},{-0.10032129},{-0.105771326}},{{-0.15818696},{-0.114720546},{-0.20513234}},{{0.0102318125},{0.02013468},{0.04375926}},{{-0.077365264},{-0.10903088},{-0.17149642}},{{-0.11705498},{-0.18980415},{-0.15679869}},{{0.1144685},{0.094797574},{0.1139452}},{{-0.16880883},{-0.17006323},{-0.19305389}},{{-0.10589949},{-0.17764035},{-0.08589182}},{{-0.13112791},{-0.21972549},{-0.25440496}},{{-0.13251932},{-0.18778455},{-0.13637292}},{{-0.043039884},{-0.12915362},{-0.09375154}},{{-0.038103126},{-0.021119222},{0.039768238}},{{-0.1699577},{-0.19213009},{-0.14307606}},{{-0.11609806},{-0.097552314},{-0.1065309}},{{-0.27744263},{-0.1312479},{-0.17045094}},{{-0.17508174},{-0.21589133},{-0.22896172}},{{-0.12121021},{-0.10455289},{-0.20407318}},{{0.008291929},{0.016911581},{-0.036709066}},{{-0.034108832},{0.09019115},{0.066612825}},{{0.053397957},{0.046722364},{-0.03157082}},{{-0.21362534},{-0.18621498},{-0.21713884}},{{-0.02117899},{-0.0798991},{-0.11764672}},{{-0.11379679},{-0.12339757},{-0.00069176976}},{{-0.15804006},{-0.13566586},{-0.104685344}},{{0.0006353489},{-0.076503776},{-0.10380211}},{{0.07459288},{-0.048708934},{-0.017105743}},{{0.04442696},{0.015364775},{-0.067374036}},{{-0.1166818},{-0.09944545},{-0.183684}},{{-0.12421909},{-0.18863101},{-0.26696542}},{{-0.17891496},{-0.13872477},{-0.22140494}},{{-0.10785849},{-0.034511358},{-0.14455165}},{{-0.099635735},{-0.117890395},{-0.18749656}},{{-0.20579527},{-0.10247709},{-0.12922716}},{{-0.21269254},{-0.21079667},{-0.14300017}},{{-0.12991254},{-0.1749257},{-0.093151346}},{{0.09653838},{-0.025219392},{0.009828854}},{{-0.17757113},{-0.16288838},{-0.19995414}},{{0.0670186},{0.0498835},{0.007665991}},{{-0.20511517},{-0.12243578},{-0.1955791}},{{-0.14966427},{-0.120235816},{-0.13047248}},{{-0.16584486},{-0.15529013},{-0.1839028}},{{-0.15617651},{-0.054284118},{-0.10277975}},{{-0.19698696},{-0.15271696},{-0.18110527}},{{-0.02492355},{-0.13914508},{-0.112520695}},{{-0.04499078},{-0.10105164},{-0.054637507}},{{0.0096264845},{0.089225784},{-0.033516675}},{{-0.07507056},{-0.21180888},{-0.14451583}},{{-0.085710146},{-0.20721431},{-0.14987808}},{{-0.17659062},{-0.14048873},{-0.13394907}},{{-0.22500692},{-0.22433983},{-0.15804592}},{{-0.1051412},{-0.1316276},{-0.21101913}},{{-0.16471449},{-0.18563727},{-0.1273638}},{{0.006581378},{0.062671356},{0.03473316}},{{0.09464709},{0.005141412},{-0.030403417}},{{-0.12525538},{-0.18286651},{-0.17020532}},{{0.07980292},{0.038894016},{0.036374565}},{{-0.14625105},{-0.05205709},{-0.09647067}}},{
{{-0.021677377},{-0.09927076},{-0.089705065}},{{-0.31445107},{-0.39338562},{-0.26945156}},{{-0.08251509},{-0.09079864},{-0.085549906}},{{-0.35369667},{-0.3556801},{-0.3040213}},{{-0.036641177},{-0.08924564},{-0.017772943}},{{-0.14181516},{-0.0611163},{-0.057335265}},{{-0.07413728},{-0.08518184},{-0.14243436}},{{-0.050028384},{0.0187561},{-0.028122585}},{{-0.05798681},{-0.06717708},{-0.055164207}},{{-0.107590176},{-0.15433578},{-0.017386645}},{{-0.041894305},{-0.056761123},{-0.11077417}},{{0.028778933},{-0.07005888},{-0.0696013}},{{-0.16741231},{-0.110261686},{-0.14058182}},{{-0.07743909},{-0.08614417},{-0.066560194}},{{0.103117585},{-0.1023322},{-0.11575439}},{{-0.14611806},{-0.041276827},{-0.11264148}},{{-0.026837587},{-0.13448948},{-0.10878113}},{{-0.47923335},{-0.42720968},{-0.23981485}},{{-0.059391838},{-0.03572384},{0.03894038}},{{0.029017856},{0.008719218},{-0.008812883}},{{-0.055596933},{-0.027771585},{-0.01635896}},{{0.015238748},{-0.046967518},{-0.03876094}},{{0.026423754},{-0.12925251},{-0.123401}},{{-0.05889283},{-0.0725207},{-0.1146397}},{{-0.34557736},{-0.18685329},{-0.028063508}},{{-0.18340605},{-0.03614929},{-0.09669895}},{{-0.27960914},{-0.11075126},{-0.057181235}},{{-0.12625584},{-0.11588742},{-0.052855562}},{{0.3624735},{0.39596653},{0.32581264}},{{0.43069404},{0.39316717},{0.28031665}},{{-0.03901191},{-0.07794341},{-0.018735938}},{{-0.30668747},{-0.3427106},{-0.33204812}},{{-0.36071324},{-0.18275982},{-0.11024908}},{{0.118902534},{0.12729873},{0.07791934}},{{-0.032915577},{-0.073759876},{-0.06981229}},{{-0.10342056},{-0.06268204},{-0.027127368}},{{-0.15106684},{-0.07057999},{-0.03857968}},{{-0.37991512},{-0.41230822},{-0.27276304}},{{-0.08172879},{-0.12043386},{-0.080012366}},{{-0.09073725},{-0.061090853},{0.016683651}},{{-0.0004487969},{-0.023721963},{-0.057855908}},{{0.09281457},{-0.09644069},{-0.10268771}},{{-0.082287356},{-0.05109608},{0.052729703}},{{0.5446004},{0.4815479},{0.48402983}},{{-0.19787441},{-0.22087467},{-0.26916152}},{{-0.08574415},{-0.04834719},{-0.057810687}},{{-0.046181325},{-0.089868754},{0.10537666}},{{-0.047275387},{-0.05553972},{-0.11264523}},{{-0.14251094},{-0.1747491},{-0.07571742}},{{0.008315928},{-0.026994372},{-0.13015185}},{{-0.013490828},{-0.047124237},{-0.11942477}},{{-0.0169505},{0.003607882},{-0.008466676}},{{-0.31874064},{-0.3062669},{-0.18823415}},{{-0.012574234},{-0.16672315},{-0.06483374}},{{0.0127665065},{-0.039806034},{0.06537078}},{{0.04150993},{-0.108917154},{-0.10159193}},{{-0.10886418},{-0.026930721},{-0.007964436}},{{-0.005570378},{-0.04581158},{-0.10859466}},{{-0.047097225},{-0.13035509},{-0.052322354}},{{-0.5017683},{-0.38642928},{-0.33692455}},{{-0.04521123},{0.044194464},{-0.046294384}},{{-0.122793466},{-0.017501736},{0.00032339562}},{{-0.27366027},{-0.21678808},{-0.10509704}},{{0.1726622},{0.23156233},{0.27356258}}},{
{{0.07005935},{0.035657242},{0.11161902}},{{-0.061121106},{-0.05962582},{-0.035718955}},{{-0.14395446},{-0.10336163},{-0.08173364}},{{-0.0676534},{-0.07559939},{-0.19652452}},{{0.07839351},{0.0010563564},{0.031206533}},{{-0.15246806},{-0.09645509},{-0.12996793}},{{0.07212691},{0.027408239},{0.033093173}},{{-0.068270825},{0.052240096},{0.034356497}},{{0.079839565},{0.00217511},{0.0026098595}},{{-0.08782938},{-0.11741351},{-0.10426502}},{{0.12441419},{0.008560515},{0.11251488}},{{0.029366765},{0.06041401},{0.07187647}},{{-0.15196979},{-0.22975025},{-0.23943654}},{{-0.013598973},{-0.005874052},{-0.10794837}},{{0.11447312},{0.075889915},{0.066853136}},{{0.08426022},{0.07181989},{0.042214967}},{{0.034623154},{0.0856392},{-0.0034080893}},{{-0.15349892},{-0.0713475},{-0.15536146}},{{-0.01956479},{-0.056571286},{-0.048059963}},{{0.036742955},{0.06703721},{0.13926151}},{{0.09444696},{0.090826124},{0.10867462}},{{-0.10026381},{0.02919991},{0.019692179}},{{0.11461629},{0.025483655},{0.009758568}},{{0.06368966},{0.012219818},{0.032820854}},{{-0.14649919},{-0.21782438},{-0.2298001}},{{-0.1539324},{-0.21722971},{-0.14721653}},{{-0.1671597},{-0.17930713},{-0.13214962}},{{0.13127874},{0.06193161},{0.05515207}},{{-0.014284013},{-0.01286518},{-0.13378507}},{{-0.1554002},{-0.19441476},{-0.1184053}},{{0.063280955},{-0.013577121},{0.10875111}},{{-0.047081903},{-0.14534454},{-0.020211885}},{{-0.20063621},{-0.26518422},{-0.24159855}},{{-0.07252095},{-0.017837817},{-0.06474334}},{{0.021447403},{-0.043264136},{-0.007163506}},{{0.014460587},{-0.08496536},{0.031064974}},{{-0.045451175},{-0.011504844},{0.04547538}},{{-0.14834951},{-0.04562908},{-0.10472152}},{{0.015339632},{0.058281217},{0.0739011}},{{0.008600177},{0.010457076},{0.07489918}},{{0.07007628},{0.020671785},{0.04080677}},{{0.030587403},{-0.006119478},{0.110169776}},{{-0.21113062},{-0.18852538},{-0.12992892}},{{-0.08097329},{-0.092092715},{-0.056343906}},{{-0.16135208},{-0.14423361},{-0.24463096}},{{0.034661345},{0.08576011},{0.047869056}},{{-0.07405078},{-0.14670883},{-0.14448473}},{{0.054042254},{0.0790834},{0.12710236}},{{-0.08608949},{-0.028982516},{-0.028294085}},{{0.08295137},{0.12561116},{0.027513623}},{{-0.13877569},{-0.013886235},{-0.047455955}},{{-0.08532237},{-0.04535215},{-0.070352755}},{{-0.08209502},{-0.114345975},{-0.039213367}},{{0.11283869},{0.13069743},{0.06721817}},{{0.030593587},{0.017418167},{0.00338894}},{{0.12087937},{0.083731316},{-0.00845321}},{{0.08840831},{0.086339906},{0.03501597}},{{0.02778267},{0.026812548},{0.0053114775}},{{0.0061599445},{0.04998494},{0.110564135}},{{-0.09220904},{-0.15147641},{-0.18584415}},{{-0.17833027},{-0.12590706},{-0.19061318}},{{0.026962023},{0.11794762},{-0.0028303205}},{{-0.2503415},{-0.18734062},{-0.23811983}},{{-0.051966004},{0.0177005},{0.01600324}}},{
{{0.09859695},{0.06804006},{0.051433835}},{{0.04080525},{-0.00046636956},{-0.044951074}},{{-0.24044015},{-0.23317784},{-0.22965346}},{{-0.08371638},{-0.03478891},{-0.09900603}},{{-0.183071},{-0.10635845},{-0.19048655}},{{-0.24714094},{-0.14688796},{-0.15515861}},{{0.11674357},{0.118922055},{0.011908592}},{{-0.023060832},{-0.051900253},{-0.05625179}},{{0.100719936},{0.018468706},{0.09193572}},{{-0.15614279},{-0.114006415},{-0.08744476}},{{0.121377826},{0.008716224},{0.13059483}},{{0.08735011},{0.041904405},{0.083082624}},{{-0.3506264},{-0.2897555},{-0.31093115}},{{0.046617564},{0.00176268},{-0.055057272}},{{0.08738563},{0.13038588},{0.07542968}},{{0.11548464},{0.013580149},{0.01174676}},{{0.05619722},{-0.0056370515},{0.017332803}},{{-0.19423002},{-0.21330349},{-0.24921359}},{{-0.1664095},{-0.11438089},{-0.14950289}},{{-0.020118013},{0.0058788327},{-0.06178204}},{{0.050455194},{0.015155675},{0.0139577435}},{{-0.004190527},{0.056318734},{0.006173736}},{{0.052121904},{0.036129728},{0.11951172}},{{0.10056005},{-0.00034609178},{0.13073651}},{{-0.30083287},{-0.27873394},{-0.30320027}},{{-0.2659582},{-0.19353844},{-0.33560705}},{{-0.37699598},{-0.27544078},{-0.28809255}},{{0.121273324},{0.09239962},{0.041078344}},{{-0.14620121},{-0.16279033},{-0.26182538}},{{-0.021514386},{0.070305526},{0.015937125}},{{0.018746173},{0.049107585},{0.03886029}},{{-0.17872718},{-0.22057326},{-0.20505652}},{{-0.31839663},{-0.35993934},{-0.31395632}},{{0.026063956},{0.031590596},{-0.03338096}},{{-0.018268306},{0.056352355},{-0.028112711}},{{0.010603852},{0.06004307},{0.059293475}},{{0.0013160399},{0.0004693137},{0.023678368}},{{-0.07635369},{-0.049774453},{-0.096871175}},{{0.07324687},{0.011506795},{0.12759641}},{{-0.09484208},{-0.04612059},{-0.04910718}},{{0.01650095},{0.029085757},{0.11527912}},{{0.03460478},{0.025364451},{0.07376333}},{{-0.20831336},{-0.21619917},{-0.20159799}},{{-0.20084292},{-0.22336279},{-0.12304214}},{{-0.31754535},{-0.25362155},{-0.33238643}},{{0.086507075},{0.026855871},{0.10746123}},{{-0.21374398},{-0.09612982},{-0.103080906}},{{-0.0038012664},{0.12975544},{0.11903472}},{{0.10844282},{-0.027101535},{0.00320478}},{{0.122310035},{0.1012415},{0.116194926}},{{-0.05412634},{-0.049008466},{-0.0688146}},{{-0.16452873},{-0.046430103},{-0.14299665}},{{-0.24822836},{-0.3275926},{-0.21738724}},{{0.039206345},{0.087592065},{0.09229694}},{{-0.029723648},{0.043841343},{-0.070402816}},{{0.027337043},{0.013257274},{0.036736727}},{{0.069827564},{0.04040131},{0.0981272}},{{0.079749055},{0.022363447},{0.042448618}},{{0.089179486},{0.006161413},{0.094948545}},{{-0.25856492},{-0.3467568},{-0.28212368}},{{-0.32021132},{-0.23470815},{-0.20935088}},{{0.12020067},{0.071440324},{0.01595155}},{{-0.3584408},{-0.362824},{-0.37143856}},{{-0.20773134},{-0.1485803},{-0.13326274}}},{
{{-0.09616533},{-0.022438943},{-0.10581317}},{{0.07014393},{-0.043236077},{0.010941778}},{{-0.1900835},{-0.09821225},{-0.060774133}},{{0.048635922},{0.08922086},{0.075841345}},{{-0.1992746},{-0.21253999},{-0.123441845}},{{-0.2596463},{-0.2999083},{-0.1907863}},{{0.022714475},{-0.029083226},{-0.09482925}},{{-0.038617898},{-0.054406207},{-0.21937284}},{{-0.0990428},{-0.081276044},{-0.06761823}},{{-0.049195055},{0.011613865},{-0.029470455}},{{-0.012372221},{-0.086828806},{-0.09147376}},{{-0.002992411},{-0.058109768},{-0.09199353}},{{-0.06446622},{-0.06838569},{-0.089248314}},{{-0.22467831},{-0.09581213},{-0.09299847}},{{-0.06972517},{-0.04370756},{-0.044561077}},{{-0.10514823},{0.012465596},{-0.0970231}},{{-0.06916526},{-0.061070167},{-0.07444218}},{{0.013834179},{0.007337545},{-0.021102197}},{{-0.24522577},{-0.19281355},{-0.17836581}},{{-0.17711926},{-0.13327785},{-0.13432261}},{{0.0070349462},{0.0014788151},{-0.03608208}},{{-0.15288271},{-0.08149796},{-0.14573082}},{{0.029726591},{-0.050017606},{-0.052712087}},{{-0.052828148},{-0.031493284},{-0.003420279}},{{-0.11715323},{-0.05584708},{-0.05092167}},{{0.003443824},{-0.0058363136},{-0.044722795}},{{-0.012292637},{-0.032012824},{-0.05596315}},{{0.010703286},{-0.107492},{-0.02512443}},{{-0.1363299},{-0.16125824},{-0.20905347}},{{-0.012750363},{-0.035815537},{-0.1164643}},{{-0.09889595},{-0.09728926},{0.02857414}},{{-0.0034309488},{-0.067470804},{-0.033989742}},{{-0.0935678},{-0.084773876},{0.00029458347}},{{-0.08303921},{-0.033207513},{-0.017444087}},{{-0.13337664},{-0.024688456},{-0.12151831}},{{-0.13403793},{-0.21696152},{-0.12950838}},{{-0.116566405},{-0.07554329},{-0.060711727}},{{0.13813546},{0.09258464},{0.17021541}},{{-0.017036453},{0.026638476},{-0.105694875}},{{0.056873355},{-0.008398932},{-0.007137562}},{{-0.016752886},{-0.07089792},{0.008658382}},{{-0.036378708},{-0.004554983},{0.01965871}},{{-0.17560515},{-0.07784583},{-0.058633827}},{{0.058333516},{0.10339498},{0.12558301}},{{-0.14228183},{-0.085650474},{-0.09536528}},{{-0.047782246},{-0.05015546},{-0.10227243}},{{0.0717377},{-0.014644666},{0.047884725}},{{-0.023026243},{-0.061308786},{0.023177294}},{{0.0019028544},{-0.08587481},{-0.12398346}},{{0.020275127},{-0.01742329},{-0.107714005}},{{-0.14203082},{-0.19791232},{-0.101623885}},{{-0.29883274},{-0.29869905},{-0.26282227}},{{-0.15002315},{-0.05502314},{-0.15714602}},{{-0.058836374},{0.025129497},{0.021780686}},{{-0.19661334},{-0.07918798},{-0.099678434}},{{-0.075570114},{0.012322654},{-0.08217551}},{{-0.023834685},{-0.10394286},{-0.10342772}},{{-0.08132621},{-0.1075645},{0.01357866}},{{-0.030175913},{-0.077011555},{-0.04879862}},{{-0.12967159},{-0.024515806},{-0.059357136}},{{-0.13202699},{-0.17237376},{-0.10375849}},{{-0.097482964},{-0.001408436},{-0.10300612}},{{-0.009700675},{-0.018202929},{-0.109853335}},{{-0.008908225},{0.08244958},{0.04954003}}},{
{{-0.036468867},{-0.06370375},{-0.12776966}},{{-0.07714772},{-0.17338404},{-0.14065}},{{0.047877707},{0.102670945},{0.09455543}},{{-0.12541479},{-0.15422806},{-0.17699952}},{{-0.21781449},{-0.1970984},{-0.11078074}},{{0.14476538},{0.025883034},{0.08561569}},{{-0.0471054},{-0.071811475},{-0.14050809}},{{-0.089599125},{-0.10188503},{-0.037334394}},{{-0.14270692},{-0.1464863},{-0.057861336}},{{-0.09855448},{-0.093268424},{-0.093243055}},{{-0.07159426},{-0.14555903},{-0.15931498}},{{-0.1626218},{-0.13621455},{-0.09093185}},{{0.17424296},{0.14341073},{0.07516731}},{{-0.18124768},{-0.20379886},{-0.12808268}},{{-0.14370035},{-0.16533485},{-0.11122099}},{{-0.054176383},{-0.14405441},{-0.117296286}},{{-0.17813972},{-0.14750032},{-0.12542585}},{{0.0011927956},{0.061317448},{-0.04160314}},{{0.06178159},{-0.052423637},{0.05500314}},{{-0.0678386},{-0.18928972},{-0.18133213}},{{-0.14729214},{-0.046578296},{-0.06260344}},{{-0.22473629},{-0.14427125},{-0.2683183}},{{-0.15452236},{-0.131056},{-0.15100795}},{{-0.1275293},{-0.11356341},{-0.08069647}},{{0.011427645},{0.048393913},{0.10058564}},{{0.0053228745},{0.15188733},{0.03319003}},{{0.01959559},{0.031203438},{0.07566863}},{{-0.12824742},{-0.1507971},{-0.14566365}},{{0.04861895},{-0.04284587},{-0.050941065}},{{0.056626078},{0.025989372},{0.014459105}},{{-0.07679423},{-0.17625412},{-0.13792337}},{{0.03917815},{-0.036560666},{0.03162287}},{{0.15293378},{0.03381576},{0.038458172}},{{-0.022395832},{-0.023255618},{0.0154356295}},{{-0.10382565},{-0.10243512},{-0.11896175}},{{-0.13300526},{-0.23416023},{-0.2083279}},{{-0.21059223},{-0.25748372},{-0.19428732}},{{-0.0946118},{-0.015617551},{-0.07661298}},{{-0.1038804},{-0.10169248},{-0.043570068}},{{-0.13265699},{-0.14763899},{-0.11079944}},{{-0.12162841},{-0.17653874},{-0.11224363}},{{-0.05924232},{-0.056019526},{-0.15094979}},{{0.121465944},{0.16143762},{0.028692916}},{{-0.16739154},{-0.096563265},{-0.064193636}},{{0.10607107},{0.114328794},{0.18359256}},{{-0.044240985},{-0.10499629},{-0.14151166}},{{-0.049063295},{-0.004431479},{-0.021195596}},{{-0.107202955},{-0.033808205},{-0.09794275}},{{-0.11497017},{-0.17157061},{-0.053951915}},{{-0.0871093},{-0.12294349},{-0.16332603}},{{-0.07724188},{-0.049074758},{-0.07073664}},{{-0.0607704},{-0.0023789734},{-0.037021592}},{{0.03172813},{0.055787306},{0.061549447}},{{-0.05527619},{-0.0658734},{-0.11545215}},{{-0.0631117},{-0.10915512},{-0.09736806}},{{-0.06088291},{-0.13117081},{-0.051381055}},{{-0.07086043},{-0.07497079},{-0.14021406}},{{-0.0624408},{-0.12599991},{-0.099287406}},{{-0.042867422},{-0.06324031},{-0.09719836}},{{0.12222614},{0.1064075},{0.048708893}},{{0.041673604},{0.111643195},{0.14099616}},{{-0.14074379},{-0.0764066},{-0.06888842}},{{0.11555414},{0.06646503},{0.115754716}},{{-0.038517367},{-0.069728516},{-0.10169595}}},{
{{-0.017970672},{-0.05974659},{-0.000673891}},{{-0.0076106233},{-0.059414774},{-0.038979176}},{{-0.35834828},{-0.25978717},{-0.2813514}},{{-0.080146015},{-0.09596463},{-0.06823511}},{{-0.23814678},{-0.24073443},{-0.23706046}},{{-0.37239575},{-0.26006228},{-0.27879256}},{{0.008032773},{-0.12112329},{-0.11384748}},{{-0.17939247},{-0.205498},{-0.1952363}},{{-0.008673414},{-0.073783346},{-0.08644575}},{{-0.15692914},{-0.21920213},{-0.14466594}},{{-0.04236818},{-0.041684132},{-0.031701837}},{{-0.02242587},{-0.015619623},{-0.05387796}},{{-0.28574145},{-0.30115646},{-0.2145024}},{{-0.12267961},{-0.14535393},{-0.15075606}},{{-0.068070374},{-0.07849088},{-0.0062448145}},{{0.0074566766},{-0.033663496},{-0.06823757}},{{-0.08207328},{-0.0014887619},{0.008243412}},{{-0.18145612},{-0.22985603},{-0.20579788}},{{-0.32797173},{-0.21486004},{-0.19457188}},{{-0.19008036},{-0.21841343},{-0.13025093}},{{-0.049820505},{-0.0027840575},{-0.01711167}},{{-0.1506896},{-0.092284836},{-0.014684239}},{{-0.1302535},{-0.024303991},{-0.0044609713}},{{-0.058085006},{-0.09602948},{-0.0033373777}},{{-0.2574423},{-0.19633597},{-0.21498792}},{{-0.19340985},{-0.18675117},{-0.24856931}},{{-0.15800163},{-0.27297112},{-0.28227955}},{{-0.09928077},{-0.007456363},{-0.03455679}},{{-0.1950227},{-0.16008335},{-0.18370645}},{{0.0749828},{0.06649722},{0.08532619}},{{-0.06470932},{-0.054067057},{-0.10250789}},{{-0.13367449},{-0.121151276},{-0.16761413}},{{-0.1907122},{-0.2953905},{-0.16693369}},{{-0.13426904},{-0.15478146},{-0.13444275}},{{-0.11468568},{-0.06659968},{-0.03235124}},{{-0.10663613},{-0.07468712},{-0.052620858}},{{-0.10797363},{-0.13997914},{-0.08486443}},{{-0.0823937},{-0.1401294},{-0.06871915}},{{-0.10873942},{-0.0011328196},{0.0040072817}},{{-0.24649242},{-0.29473144},{-0.21461496}},{{-0.06572504},{-0.037148707},{-0.06877932}},{{-0.0655009},{-0.02732065},{-0.011620059}},{{-0.19758858},{-0.20529485},{-0.34030998}},{{0.104714796},{0.004105205},{0.11979329}},{{-0.32553524},{-0.31403527},{-0.2747805}},{{-0.052445},{-0.10274459},{-0.02936069}},{{-0.2207524},{-0.20165236},{-0.14398484}},{{-0.070964575},{-0.07463569},{-0.0893972}},{{-0.12679724},{-0.11464707},{-0.11314614}},{{-0.017737461},{-0.016141696},{-0.0066118077}},{{-0.19888797},{-0.21951722},{-0.16384105}},{{-0.248449},{-0.23707071},{-0.2395876}},{{-0.4274411},{-0.4095924},{-0.45048374}},{{-0.03751318},{-0.0003185002},{-0.018845556}},{{-0.10467977},{-0.11386344},{-0.13509208}},{{-0.024469476},{-0.023633778},{-0.091686666}},{{-0.09330968},{-0.08813741},{-0.014374125}},{{-0.13128883},{-0.074638486},{-0.014423826}},{{-0.11285004},{-0.04325519},{-0.10561857}},{{-0.19527124},{-0.29953215},{-0.27747265}},{{-0.24832837},{-0.19559169},{-0.19646116}},{{0.010727231},{-0.032704223},{-0.055517174}},{{-0.25298402},{-0.1925732},{-0.21715643}},{{0.031142594},{-0.088992745},{-0.085127674}}},{
{{-0.14195296},{-0.05181865},{-0.08515185}},{{-0.016048701},{0.039119676},{0.054601375}},{{-0.050784674},{0.087578416},{-0.01777161}},{{0.012539864},{-0.050728764},{0.06678304}},{{0.040236272},{0.09553147},{0.034871694}},{{-0.06411621},{0.040090095},{0.09456711}},{{-0.1216135},{-0.1661793},{-0.104518436}},{{-0.13736367},{-0.14455174},{-0.12064865}},{{-0.1597561},{-0.094676636},{-0.11299681}},{{0.0098376},{-0.0048695896},{-0.06291663}},{{-0.10174281},{-0.05704115},{-0.13636015}},{{-0.20535499},{-0.17419349},{-0.015161191}},{{-0.052290916},{-0.009100446},{-0.02958699}},{{-0.025006844},{-0.002433337},{0.08805574}},{{-0.1509376},{-0.14555334},{-0.17773725}},{{-0.079898946},{-0.071669206},{-0.02754152}},{{-0.14819339},{-0.1661817},{-0.07723833}},{{-0.00878433},{0.021612206},{-0.06877287}},{{0.00998831},{0.061337266},{0.032367185}},{{-0.07254145},{-0.091375396},{0.036756705}},{{-0.17926556},{-0.14626968},{-0.056760043}},{{-0.11884685},{-0.060694944},{-0.061388433}},{{-0.16339865},{-0.1302653},{-0.08100781}},{{-0.19313362},{-0.11586131},{-0.08177723}},{{0.04364771},{-0.082530975},{0.013128033}},{{-0.069601454},{-0.08710472},{0.042325065}},{{-0.00919099},{-0.06050995},{0.047190335}},{{-0.15869789},{-0.1486886},{-0.02284393}},{{-0.03614407},{0.077760145},{0.07503343}},{{-0.037805486},{-0.022081848},{-0.04754477}},{{-0.16712336},{-0.12684184},{-0.11270015}},{{0.024627866},{0.018505342},{-0.04122927}},{{-0.07313209},{-0.01927615},{-0.0436688}},{{0.020096788},{0.01593932},{-0.003487981}},{{-0.092055954},{-0.048047546},{-0.06382533}},{{0.059284426},{0.08268231},{0.026147004}},{{0.03859482},{0.08176003},{0.0108994385}},{{0.006999098},{-0.07560865},{-0.022652205}},{{-0.14106771},{-0.18650459},{-0.1381262}},{{0.012381307},{-0.07638056},{-0.12098987}},{{-0.06972107},{-0.096223824},{-0.1029059}},{{-0.023555942},{-0.12440835},{-0.091974065}},{{0.032673355},{0.012730985},{-0.039546005}},{{0.06780773},{0.038294002},{0.031254344}},{{-0.0002459746},{0.018997964},{-0.03125576}},{{-0.07834946},{-0.008907359},{0.027456682}},{{-0.0017794415},{-0.020361345},{-0.061291963}},{{-0.10246051},{-0.0654305},{-0.08188589}},{{0.068178095},{0.07498448},{0.0030941064}},{{-0.16322888},{-0.12246445},{-0.042581666}},{{-0.06980775},{-0.015282424},{0.012308736}},{{0.005775056},{0.06362239},{-0.009833765}},{{-0.040857},{0.026032798},{-0.08334463}},{{-0.12969157},{-0.049493145},{-0.0065110647}},{{-0.08228358},{0.032284543},{-0.01118189}},{{-0.07969726},{-0.10251218},{-0.08660426}},{{-0.065839246},{-0.15461496},{-0.062157013}},{{-0.0916516},{-0.07111628},{-0.06731741}},{{-0.1796443},{-0.1636502},{-0.03668425}},{{0.05178579},{0.028674528},{-0.07031566}},{{0.030671712},{0.05612255},{-0.04732872}},{{-0.06291389},{-0.003037763},{-0.09637978}},{{0.047841024},{0.046695992},{-0.07260243}},{{0.06897166},{0.11228611},{0.00023261622}}},{
{{-0.070832774},{-0.018680073},{-0.10849496}},{{-0.088776626},{-0.074641176},{-0.056273505}},{{0.10563842},{-0.0065547316},{0.048033915}},{{-0.032574855},{-0.043234255},{0.026958546}},{{-0.0025352219},{-0.094408534},{-0.06915972}},{{-0.01939236},{-0.07370303},{-0.0849066}},{{-0.07989941},{-0.09051437},{-0.15134057}},{{-0.023738623},{-0.0335989},{-0.102557935}},{{-0.14971006},{-0.058086738},{-0.17068303}},{{0.051516198},{-0.05411522},{-0.023533646}},{{-0.13380912},{-0.082969785},{-0.13537902}},{{-0.13399436},{-0.1352069},{-0.092852324}},{{0.083876975},{0.10924297},{0.031121882}},{{-0.12656055},{-0.120851025},{-0.05435603}},{{-0.10703073},{-0.08559045},{-0.06941957}},{{-0.076485746},{-0.062334064},{-0.07832669}},{{-0.022850588},{-0.112802826},{-0.05087508}},{{-0.00087922096},{0.014315608},{0.014649176}},{{0.005947814},{0.03929394},{-0.08283283}},{{-0.042317025},{-0.11531889},{-0.01626368}},{{-0.092420995},{-0.15575884},{-0.051960416}},{{-0.06407397},{-0.03441736},{-0.107176624}},{{-0.1385136},{-0.14694506},{-0.047197647}},{{-0.1574305},{-0.08276522},{-0.16302301}},{{-0.008352913},{0.006620657},{0.073205456}},{{0.07334834},{0.108401194},{0.008317894}},{{0.054173775},{-0.011934695},{-0.005228167}},{{-0.02792375},{-0.16252373},{-0.17670202}},{{0.05956159},{-0.010717843},{-0.0493071}},{{0.0055463244},{0.027327275},{0.052021526}},{{-0.14054203},{-0.12782201},{-0.11363676}},{{0.09893303},{-0.030522963},{0.03914116}},{{0.0600705},{0.006862502},{0.041588005}},{{-0.04993194},{-0.09918763},{-0.09446848}},{{-0.02648995},{-0.10540491},{-0.0400191}},{{0.0077809915},{0.014552485},{-0.058226444}},{{-0.032472536},{-0.041859746},{-0.052390344}},{{-0.08059073},{0.052928317},{-0.08413931}},{{-0.1284986},{-0.09953868},{-0.1360704}},{{-0.011469841},{-0.014832265},{-0.11519659}},{{-0.056940608},{-0.16071455},{-0.15322685}},{{-0.14126106},{-0.13730437},{-0.071533725}},{{0.103114314},{0.09367203},{0.013451589}},{{0.022228893},{0.056432016},{-0.058672983}},{{0.10832363},{0.0492809},{0.119141996}},{{-0.07144508},{-0.12916657},{-0.061040636}},{{-0.008303891},{-0.0821053},{-0.07760413}},{{-0.13768655},{-0.08097998},{-0.03594532}},{{-0.050430384},{-0.06860509},{-0.056096297}},{{-0.12021575},{-0.090647146},{-0.12399961}},{{0.0010827995},{-0.11192799},{-0.06362886}},{{0.019239249},{-0.068137},{-0.08881098}},{{0.04585793},{0.037797682},{0.017928423}},{{-0.14940195},{-0.11534481},{-0.09837209}},{{-0.13501325},{-0.01242576},{-0.044952743}},{{-0.06262546},{-0.048253436},{-0.09263137}},{{-0.14390849},{-0.07371374},{-0.06851426}},{{-0.032867547},{-0.056633748},{-0.0741384}},{{-0.120328374},{-0.06892209},{-0.09058685}},{{0.0799507},{-0.00096529425},{0.010755043}},{{0.0072241393},{0.009786672},{0.053803064}},{{-0.13938193},{-0.16201283},{-0.060931873}},{{0.050500926},{0.09426647},{0.11412331}},{{-0.03732161},{-0.08131541},{0.02307854}}},{
{{-0.035454195},{-0.066107586},{-0.13147448}},{{-0.216183},{-0.13378963},{-0.23376998}},{{0.055823784},{0.15303239},{0.054321293}},{{-0.21650489},{-0.11999902},{-0.23649174}},{{-0.028168455},{-0.06683493},{-0.070437275}},{{0.12353518},{0.037016507},{0.12409811}},{{-0.1587163},{-0.08434564},{-0.043904565}},{{-0.08662994},{-0.18208277},{-0.17780244}},{{-0.089156896},{-0.029233012},{-0.12551281}},{{-0.0619007},{-0.11358564},{-0.12172516}},{{-0.04193045},{-0.0848932},{-0.03048962}},{{-0.07579635},{-0.0872325},{-0.111046866}},{{0.16393112},{0.030858211},{0.1224552}},{{-0.07569779},{-0.08832494},{-0.1933514}},{{-0.055341892},{-0.034271114},{-0.16439162}},{{-0.07564132},{-0.16650432},{-0.16715823}},{{-0.04562839},{-0.15531284},{-0.093324564}},{{-0.049535453},{-0.0039355964},{-0.08832341}},{{-0.019749157},{-0.0011445929},{-0.0035740607}},{{-0.12293543},{-0.12673868},{-0.19480568}},{{-0.037671093},{-0.09068333},{-0.017817032}},{{-0.2720334},{-0.18349499},{-0.1444311}},{{-0.11308525},{-0.13118821},{-0.10494573}},{{-0.07866556},{-0.12889259},{-0.081904}},{{0.000341215},{-0.00084184855},{0.008666935}},{{0.06875925},{0.017213926},{0.06851892}},{{0.12487082},{0.04642042},{0.0025390128}},{{-0.09417848},{-0.10545411},{-0.1425423}},{{0.05648691},{0.0021745812},{-0.018721104}},{{-0.04074879},{0.023459306},{-0.04725526}},{{-0.10876126},{-0.12665875},{-0.09643346}},{{-0.067469165},{0.019745534},{-0.075555414}},{{0.0705391},{0.039501924},{0.11706499}},{{-0.015245168},{0.005839126},{-0.03046696}},{{-0.1946177},{-0.18358271},{-0.10531829}},{{-0.22456373},{-0.19970745},{-0.1583566}},{{-0.21368422},{-0.2072751},{-0.26230174}},{{-0.06113946},{0.04125702},{-0.054320756}},{{-0.044271614},{-0.035318747},{-0.030612966}},{{-0.068774685},{-0.14622064},{-0.03797836}},{{-0.11558649},{-0.107772715},{-0.030568294}},{{-0.1336405},{-0.041070603},{-0.15743983}},{{0.060392722},{0.08455236},{0.00041247543}},{{-0.21775219},{-0.22686735},{-0.12254533}},{{0.15427355},{0.050303347},{0.1152324}},{{-0.038880203},{-0.07583006},{-0.11048507}},{{-0.11136291},{-0.08253723},{-0.0014227083}},{{-0.12640508},{-0.12919357},{-0.100442626}},{{-0.11375906},{-0.023706486},{-0.0451279}},{{-0.13604246},{-0.15639427},{-0.037887525}},{{-0.1035029},{-0.10975667},{-0.037612475}},{{-0.10225346},{-0.10780353},{-0.05354224}},{{0.030187707},{0.13476653},{0.02379684}},{{-0.011955939},{-0.074471325},{-0.11417808}},{{-0.10534487},{-0.10736516},{-0.033615835}},{{-0.041919176},{-0.08721051},{-0.1638218}},{{-0.14272578},{-0.036280703},{-0.036895465}},{{-0.048690613},{-0.054964002},{-0.07353772}},{{-0.077631064},{-0.15306355},{-0.05006279}},{{0.096413255},{0.07451039},{0.08994525}},{{0.08110717},{0.10738638},{0.039243706}},{{-0.04587912},{-0.09997104},{-0.10703918}},{{0.1227959},{0.12376862},{0.09272979}},{{-0.055035356},{-0.1467937},{-0.12271893}}},{
{{0.03618881},{-0.04644084},{-0.04259937}},{{-0.18064754},{-0.24856876},{-0.16769467}},{{-0.28239322},{-0.2923477},{-0.27433628}},{{-0.21708435},{-0.18625212},{-0.1442736}},{{-0.14236155},{-0.096508704},{-0.16510643}},{{-0.31812656},{-0.2284768},{-0.27851576}},{{0.039234646},{-0.0278016},{-0.03793357}},{{-0.09760002},{-0.13710652},{-0.13413242}},{{-0.07897815},{-0.06746612},{-0.11155601}},{{-0.08359277},{0.011635921},{-0.06288037}},{{0.016210716},{-0.043514658},{0.019843066}},{{0.020718573},{-0.013547151},{-0.061945505}},{{-0.0934284},{-0.17352639},{-0.15733722}},{{-0.053216584},{-0.080567755},{-0.1774626}},{{0.010139994},{-0.069949694},{-0.047895934}},{{-0.041503042},{-0.014720834},{-0.08614645}},{{0.0064804615},{-0.11623364},{-0.009412037}},{{-0.2101196},{-0.35462454},{-0.38726148}},{{-0.1695122},{-0.16024928},{-0.17438602}},{{-0.1839124},{-0.09124666},{-0.1707452}},{{-0.08034832},{-0.03872427},{0.017138533}},{{-0.12160866},{-0.11464607},{-0.079726346}},{{-0.09735092},{-0.044596862},{-0.0348896}},{{0.031520434},{-0.0721298},{-0.053441543}},{{-0.13042815},{-0.22637181},{-0.2464933}},{{-0.23229507},{-0.23117863},{-0.23858419}},{{-0.23217164},{-0.25539413},{-0.22475581}},{{-0.0760259},{-0.10513225},{-0.08143731}},{{-0.22947769},{-0.26625505},{-0.16290805}},{{0.03929766},{-0.038757306},{-0.016504707}},{{-0.09249014},{-0.043882508},{-0.011687374}},{{-0.10140118},{-0.17750295},{-0.069689296}},{{-0.17955427},{-0.1590901},{-0.12817739}},{{0.043974757},{0.04449706},{0.005636843}},{{-0.18140422},{-0.0314135},{-0.068768404}},{{-0.14810629},{-0.08290204},{-0.13384461}},{{-0.11976715},{-0.08476003},{-0.042056914}},{{-0.16608113},{-0.21559907},{-0.25053596}},{{0.00046266255},{0.019717332},{-0.10258303}},{{-0.0981728},{-0.16971989},{-0.08589653}},{{-0.07539168},{-0.10017391},{-0.06400223}},{{-0.047840122},{0.02395021},{-0.026788076}},{{-0.254673},{-0.16913787},{-0.24112496}},{{0.024244986},{0.115372166},{0.0118896365}},{{-0.034152348},{-0.18727565},{-0.1789522}},{{-0.052888546},{-0.11252708},{-0.111434504}},{{-0.11653248},{-0.02762091},{-0.09344112}},{{0.01003598},{0.006940809},{0.00088243105}},{{-0.03105957},{-0.06791223},{-0.020209417}},{{-0.08724059},{0.028466891},{-0.04776834}},{{-0.08340021},{-0.06595816},{-0.18385138}},{{-0.12458797},{-0.13890336},{-0.098230116}},{{-0.3573912},{-0.3318987},{-0.28725913}},{{0.0031727902},{-0.032337476},{-0.042093433}},{{-0.10194418},{-0.050210018},{-0.092017055}},{{-0.09495571},{0.027212497},{-0.015522695}},{{-0.090515375},{-0.068777315},{-0.029841427}},{{-0.003986924},{-0.10387462},{-0.035040777}},{{0.03885809},{-0.07519912},{-0.091446936}},{{-0.13773437},{-0.17198081},{-0.12383367}},{{-0.213719},{-0.25460508},{-0.17440377}},{{0.018780151},{-0.0013341979},{0.011977547}},{{-0.22480625},{-0.13175759},{-0.18162555}},{{-0.050566196},{-0.19611356},{-0.120689295}}},{
{{-0.21565534},{-0.20171614},{-0.16562924}},{{-0.14851876},{-0.03337951},{-0.09120198}},{{0.03234515},{0.018293627},{0.04582789}},{{-0.035011906},{-0.010224132},{-0.083506994}},{{-0.022061482},{-0.1236135},{-0.056982927}},{{-0.027067026},{0.10308962},{0.035449523}},{{-0.103289925},{-0.10874972},{-0.23017907}},{{-0.14326215},{-0.08628295},{-0.12951808}},{{-0.20010598},{-0.2169523},{-0.20119913}},{{-0.08177542},{0.0029804732},{-0.084874235}},{{-0.107431695},{-0.16760595},{-0.124775216}},{{-0.193232},{-0.17736691},{-0.20658171}},{{-0.020996299},{0.0036799537},{0.055055674}},{{-0.14442514},{-0.03281994},{-0.019908885}},{{-0.064131126},{-0.11424025},{-0.18118542}},{{-0.22341506},{-0.15787742},{-0.15014982}},{{-0.1562178},{-0.08451308},{-0.084617786}},{{0.012015206},{-0.0015006963},{-0.04625305}},{{-0.032775007},{-0.033408172},{0.050757837}},{{-0.06557847},{-0.054149114},{-0.11266871}},{{-0.21074061},{-0.1678036},{-0.18184566}},{{-0.072649986},{-0.021797076},{-0.026067227}},{{-0.2029973},{-0.11407301},{-0.15662795}},{{-0.1794792},{-0.098318584},{-0.21843012}},{{0.08597136},{0.12540856},{0.1132857}},{{0.039363764},{0.00052457594},{0.07463939}},{{0.038602117},{-0.01592652},{-0.00043556467}},{{-0.13451934},{-0.12877014},{-0.15733396}},{{0.006857306},{0.03147946},{0.041339826}},{{0.052678023},{0.054776073},{0.08821487}},{{-0.16170044},{-0.15629435},{-0.14275645}},{{-0.02081772},{0.01074455},{-0.07205822}},{{0.10420589},{0.1055006},{0.07549236}},{{0.16617373},{0.119113594},{0.14576197}},{{-0.11398178},{-0.124890864},{-0.064971}},{{-0.07363877},{-0.17442401},{-0.06292056}},{{-0.059596475},{-0.0832131},{-0.11302334}},{{-0.06688559},{-0.044544425},{0.03438787}},{{-0.21109754},{-0.13213134},{-0.1469849}},{{-0.1074842},{-0.1045709},{-0.16289175}},{{-0.06452832},{-0.15896523},{-0.1135677}},{{-0.12081131},{-0.1824134},{-0.21606657}},{{0.059359923},{0.11372606},{0.027594144}},{{0.07572538},{0.11780467},{0.057271548}},{{0.081451364},{0.016259396},{0.040599864}},{{-0.16680074},{-0.22030324},{-0.18150577}},{{0.17997716},{0.1584433},{0.25569212}},{{-0.20195754},{-0.10409888},{-0.11446477}},{{-0.10391725},{-0.0054546646},{-0.0020703422}},{{-0.13652338},{-0.102691546},{-0.079921536}},{{-0.09097439},{-0.031590153},{-0.008388611}},{{-0.08284576},{-0.08711534},{0.0039084964}},{{-0.01589002},{0.040223826},{0.04962952}},{{-0.12848453},{-0.19146411},{-0.21513884}},{{-0.18487567},{-0.15636078},{-0.108168766}},{{-0.1811295},{-0.19638875},{-0.16307442}},{{-0.19783866},{-0.1187618},{-0.1428039}},{{-0.1567919},{-0.1619826},{-0.10491207}},{{-0.15232554},{-0.12895708},{-0.18055595}},{{0.080010355},{-0.0047094864},{0.00521172}},{{0.09420065},{0.093482494},{0.12430072}},{{-0.1801128},{-0.22024485},{-0.18200733}},{{0.045802247},{0.066703364},{0.021232445}},{{0.17269331},{0.13722225},{0.07730904}}},{
{{-0.19581038},{-0.11802807},{-0.072276816}},{{-0.04654435},{0.077591315},{0.025617978}},{{-0.030550115},{-0.068395734},{-0.042436842}},{{-0.069564976},{-0.08065986},{0.04156665}},{{0.0135387555},{-0.052614927},{-0.04786661}},{{0.008202994},{-0.1054201},{-0.09934985}},{{-0.1933398},{-0.1952445},{-0.114656456}},{{-0.0024593824},{0.009806283},{0.013767837}},{{-0.10554959},{-0.14850593},{-0.17024887}},{{0.04118931},{-0.030332195},{-0.034889933}},{{-0.1493777},{-0.09775095},{-0.15632297}},{{-0.13370262},{-0.12214024},{-0.026185533}},{{-0.051758245},{-0.00912223},{-0.07275545}},{{-0.019526506},{0.0048978147},{0.011948307}},{{-0.12317735},{-0.09056514},{-0.112730585}},{{-0.12401047},{-0.13615209},{-0.06221372}},{{-0.08880035},{-0.18475555},{-0.17702042}},{{-0.029833112},{-0.08223553},{-0.022116948}},{{0.009802731},{-0.01969146},{0.05020294}},{{-0.12747256},{-0.1007803},{-0.11141385}},{{-0.08483759},{-0.1879792},{-0.16723983}},{{-0.103494875},{-0.046429873},{-0.14447132}},{{-0.11075858},{-0.104448594},{-0.07048677}},{{-0.15358286},{-0.1956419},{-0.13697678}},{{0.02054933},{0.02250642},{0.0036885878}},{{-0.0726879},{-0.056089796},{0.00055810955}},{{-0.015421504},{-0.04897748},{-0.048393458}},{{-0.14518453},{-0.15516673},{-0.15610488}},{{-0.034228545},{-0.032995343},{-0.057687268}},{{-0.03937778},{-0.0041839355},{-0.14233968}},{{-0.17044878},{-0.13645439},{-0.096436724}},{{-0.036997702},{0.046902314},{-0.034775436}},{{-0.05669028},{-0.034083396},{0.050541624}},{{-0.004666234},{-0.023380209},{-0.05555484}},{{-0.06949354},{-0.105220206},{-0.006778296}},{{0.016034346},{0.007169942},{0.041722186}},{{-0.06432481},{0.0554806},{-0.0028933785}},{{-0.06268139},{-0.06399119},{-0.00015788108}},{{-0.13393714},{-0.2134241},{-0.09624389}},{{0.007519575},{-0.019820897},{0.026266515}},{{-0.08865626},{-0.2210094},{-0.10399777}},{{-0.13452697},{-0.22407432},{-0.13317068}},{{-0.076765895},{-0.020125663},{-0.020044796}},{{-0.021438511},{-0.002684555},{-0.023319557}},{{0.018727938},{-0.053140108},{-0.10509948}},{{-0.20692647},{-0.14843681},{-0.07876726}},{{-0.0072710407},{0.0070138867},{0.04010962}},{{-0.12875102},{-0.18650945},{-0.09904014}},{{-0.021887632},{-0.0979418},{0.052138016}},{{-0.20986362},{-0.09385219},{-0.10467701}},{{-0.06965426},{0.044367723},{0.0020004404}},{{-0.06092646},{0.02552071},{-0.05543526}},{{-0.010884969},{-0.08994436},{-0.033957962}},{{-0.20383976},{-0.110666946},{-0.15481925}},{{-0.01262304},{-0.100330435},{-0.078509904}},{{-0.12142731},{-0.08243797},{-0.21019895}},{{-0.09382945},{-0.096706316},{-0.15354098}},{{-0.21092342},{-0.1615091},{-0.07273009}},{{-0.09175043},{-0.0989054},{-0.20343654}},{{-0.059924774},{-0.07284823},{0.027282508}},{{-0.09802692},{0.019272145},{0.0054256874}},{{-0.08494203},{-0.1087317},{-0.09232583}},{{-0.021325594},{0.013694596},{0.019985314}},{{0.06807031},{0.031168826},{0.11526242}}},{
{{-0.010950163},{-0.13019796},{-0.06021426}},{{-0.0858089},{-0.013753711},{-0.06083073}},{{0.014374467},{-0.008068153},{-0.00087660155}},{{0.07110143},{0.08753496},{0.053724326}},{{-0.18054952},{-0.1816987},{-0.2628187}},{{0.07072231},{0.014711266},{0.04824228}},{{-0.097494006},{-0.0168451},{-0.1059353}},{{-0.1168646},{-0.10377746},{-0.16765434}},{{-0.08828095},{-0.02902241},{-0.11810022}},{{-0.13269486},{-0.18097427},{-0.0935419}},{{-0.087117},{-0.021305962},{-0.05855047}},{{-0.036266513},{-0.01278952},{0.011192737}},{{0.005294514},{0.06891031},{-0.028483227}},{{-0.057589695},{-0.050773054},{-0.066485584}},{{-0.026295045},{-0.04647049},{-0.13447051}},{{-0.110567816},{-0.11367944},{-0.050832305}},{{-0.14447905},{-0.1223051},{-0.06585536}},{{-2.7050877e-05},{-0.057750322},{0.06879689}},{{0.011236329},{-0.0064948136},{0.053600192}},{{-0.037111398},{-0.1451887},{-0.08697445}},{{-0.112358615},{-0.12679932},{-0.13858634}},{{-0.08437067},{-0.032284968},{-0.069528885}},{{-0.010707101},{-0.025505817},{-0.045864888}},{{-0.04881834},{-0.07797748},{-0.10579492}},{{0.085690886},{0.058207203},{0.062391434}},{{0.022253359},{-0.02926029},{0.022982562}},{{0.100100115},{0.03529944},{-0.039381225}},{{-0.108285725},{-0.107711226},{-0.09391914}},{{0.027727485},{-0.007458312},{-0.09291565}},{{-0.0038170791},{0.023173159},{-0.057898544}},{{-0.001228939},{-0.014080223},{-0.06853967}},{{-0.20627114},{-0.14552465},{-0.13008043}},{{0.10149},{-0.027990874},{-0.036594592}},{{0.052563228},{0.004734935},{0.02492971}},{{0.0034441545},{-0.035297774},{-0.11388226}},{{-0.1351544},{-0.124675624},{-0.19710386}},{{-0.11537122},{-0.12966251},{-0.10313896}},{{0.022383593},{-0.01532838},{0.0075946287}},{{-0.12083958},{-0.10609518},{-0.097505435}},{{-0.059498932},{-0.05568722},{-0.15453991}},{{-0.04523504},{-0.10756838},{-0.05163828}},{{-0.006641015},{-0.037198775},{-0.06345269}},{{0.031208353},{-0.0032507486},{-0.018982742}},{{-0.052613202},{-0.13012871},{-0.12249064}},{{0.099372745},{0.015883679},{0.10067977}},{{-0.13309854},{-0.14791134},{-0.11151741}},{{0.02020487},{0.09794352},{0.03564872}},{{-0.13416675},{-0.044692196},{-0.08072673}},{{-0.10109773},{-0.0057603028},{0.009847033}},{{-0.13283218},{-0.0972655},{-0.040600605}},{{-0.023876883},{0.012009494},{-0.037433665}},{{-0.03928742},{-0.039268684},{0.014193512}},{{0.07480245},{-0.016380433},{0.011581646}},{{-0.015356768},{-0.026974557},{-0.13526274}},{{-0.16244136},{-0.10222992},{-0.19645171}},{{-0.13560212},{-0.12302735},{-0.024885034}},{{-0.07583233},{-0.12577224},{-0.064274356}},{{-0.12067689},{-0.074643254},{-0.11019606}},{{-0.012149736},{-0.10480261},{-0.14774036}},{{0.009037954},{0.007162561},{0.006856338}},{{0.08334826},{0.054722123},{0.019864665}},{{-0.04161672},{-0.044383466},{-0.017598987}},{{0.049387522},{0.033338577},{-0.016976874}},{{-0.03896719},{0.044726264},{-0.043088302}}},{
{{-0.13160022},{-0.2598571},{-0.2302939}},{{-0.13410535},{-0.06559476},{-0.04202015}},{{-0.018550968},{-0.05509275},{-0.09073362}},{{-0.16070713},{-0.22490953},{-0.12389134}},{{-0.08365604},{-0.10035887},{-0.11958488}},{{-0.17163561},{-0.08240735},{-0.101443924}},{{-0.19937785},{-0.2486335},{-0.17375624}},{{-0.14126803},{-0.12302092},{-0.04423579}},{{-0.16092482},{-0.22430475},{-0.2206904}},{{-0.047966827},{-0.049087763},{-0.045376454}},{{-0.1769529},{-0.21904959},{-0.20944254}},{{-0.10719544},{-0.14343935},{-0.09666567}},{{0.0014765544},{-0.084634185},{-0.07486751}},{{-0.18415095},{-0.11908729},{-0.16300996}},{{-0.22393532},{-0.13810931},{-0.23079242}},{{-0.24479766},{-0.2233658},{-0.19624205}},{{-0.16538428},{-0.16206455},{-0.17217423}},{{-0.14405042},{-0.035141513},{-0.014283969}},{{-0.07563487},{-0.14766245},{-0.16782327}},{{-0.09689446},{-0.16168971},{-0.14695093}},{{-0.17937596},{-0.21383129},{-0.19045353}},{{-0.16750848},{-0.18172091},{-0.1735944}},{{-0.19508207},{-0.10543481},{-0.23745228}},{{-0.20310053},{-0.18869445},{-0.19624078}},{{-0.02124811},{0.016544443},{0.051267613}},{{-0.018777315},{0.063696824},{0.013814321}},{{-0.0928255},{0.017924486},{0.111878745}},{{-0.106742635},{-0.20015685},{-0.105278805}},{{0.2476015},{0.22331312},{0.19448951}},{{0.0823166},{0.08584445},{0.08573986}},{{-0.074410506},{-0.18127021},{-0.15413931}},{{-0.10891245},{-0.15073457},{-0.1622418}},{{-0.08175098},{0.051273324},{-0.031939514}},{{0.04544425},{0.033234674},{0.014143712}},{{-0.13016506},{-0.13528591},{-0.2080063}},{{-0.27275977},{-0.18295111},{-0.23655431}},{{-0.10068522},{-0.13908303},{-0.1432739}},{{-0.087921634},{-0.04619704},{-0.10437599}},{{-0.22881714},{-0.20798464},{-0.23706998}},{{-0.13081919},{-0.19420367},{-0.13417387}},{{-0.22769764},{-0.20751424},{-0.14449501}},{{-0.1560005},{-0.26366854},{-0.24869867}},{{0.022905637},{-0.014221072},{-0.016435558}},{{0.13724901},{0.186001},{0.10376347}},{{-0.018951243},{0.059351366},{0.10101197}},{{-0.23611523},{-0.17717573},{-0.23233819}},{{0.17246516},{0.20005246},{0.2948536}},{{-0.20701925},{-0.22360772},{-0.22661579}},{{-0.06549149},{-0.1785308},{-0.16550736}},{{-0.13721317},{-0.1175798},{-0.17023543}},{{-0.0952227},{-0.027656097},{-0.06680228}},{{-0.07068731},{-0.15343344},{-0.08581541}},{{-0.110834226},{-0.07195809},{-0.08475008}},{{-0.20699875},{-0.23882498},{-0.25831893}},{{-0.19781621},{-0.15025696},{-0.18863323}},{{-0.19864482},{-0.10368641},{-0.09905111}},{{-0.22958682},{-0.14598121},{-0.22430691}},{{-0.17924067},{-0.23098612},{-0.106664486}},{{-0.1926922},{-0.18895413},{-0.21356526}},{{-0.036546655},{0.031844296},{-0.010566593}},{{0.03751263},{-0.060409304},{-0.06430521}},{{-0.12879235},{-0.25516045},{-0.2323066}},{{-0.10610738},{-0.09312182},{0.01845701}},{{0.34011108},{0.22129963},{0.2914797}}},{
{{0.013438025},{0.111367844},{0.08922192}},{{-0.11956391},{-0.101255216},{-0.043070544}},{{-0.21271847},{-0.2687936},{-0.1669408}},{{-0.15383652},{-0.107671596},{-0.053059086}},{{-0.05806435},{-0.13377059},{-0.024734486}},{{-0.06462028},{-0.056015752},{-0.16071089}},{{0.08769866},{0.101040654},{0.013597407}},{{0.003965523},{-0.08208581},{-0.040644147}},{{0.048333857},{0.058834463},{0.12403414}},{{-0.099982545},{-0.11292299},{-0.1482019}},{{0.118302956},{0.09213908},{0.098686405}},{{0.0796206},{-0.01434452},{0.03073712}},{{-0.25665915},{-0.24342819},{-0.19569634}},{{-0.07410233},{-0.06352774},{-0.093831845}},{{0.07671867},{0.08296966},{0.11924377}},{{0.05489903},{0.11025651},{0.03852913}},{{0.02273988},{0.06307813},{0.045108087}},{{-0.21871814},{-0.20492211},{-0.08204629}},{{-0.09570266},{-0.07526777},{-0.10450017}},{{-0.06748948},{-0.019275015},{-0.020125257}},{{0.016028348},{0.023082754},{0.12746328}},{{-0.06767215},{0.05985138},{-0.039666843}},{{0.033091173},{0.042697098},{0.0511946}},{{0.02829437},{0.0066916547},{-0.007091056}},{{-0.20635183},{-0.2457324},{-0.20821393}},{{-0.25546965},{-0.14993557},{-0.27775523}},{{-0.26077226},{-0.28430554},{-0.22853318}},{{0.02304654},{0.11814904},{0.0056265965}},{{-0.21732588},{-0.16207223},{-0.15676951}},{{0.041675013},{-0.074133836},{-0.050151404}},{{0.01600187},{0.08154636},{-0.010059008}},{{-0.18986244},{-0.19236764},{-0.20578463}},{{-0.17527351},{-0.21813798},{-0.27620688}},{{0.03257966},{-0.05113924},{-0.03823552}},{{0.057955462},{0.06435525},{0.016466452}},{{-0.04433067},{0.018700277},{-0.061071407}},{{-0.03918823},{0.07237784},{0.062177002}},{{-0.1375749},{-0.01744373},{-0.010556086}},{{0.103825234},{0.10810011},{0.092265174}},{{-0.09337332},{-0.10201214},{-0.018695066}},{{0.055119533},{0.004018951},{0.117188856}},{{0.031465497},{-0.007278232},{0.004707631}},{{-0.29065827},{-0.15485603},{-0.27175727}},{{-0.0121016195},{-0.13508047},{-0.13447763}},{{-0.25931254},{-0.29606998},{-0.22014384}},{{0.105282456},{0.11184327},{0.066753715}},{{-0.13118425},{-0.16974373},{-0.08608211}},{{0.004660929},{0.07930978},{0.13160902}},{{0.027280677},{0.015858844},{0.04193749}},{{-0.020917755},{-0.008700449},{0.13225779}},{{-0.06762336},{-0.045557924},{-0.041868974}},{{-0.16037658},{-0.12389513},{-0.117112815}},{{-0.25157586},{-0.271154},{-0.26560465}},{{-0.010613788},{0.043055072},{0.020047845}},{{0.020981064},{-0.0070429803},{0.031037595}},{{0.048643693},{0.027468031},{0.00015376175}},{{0.10890261},{0.119123176},{0.1312333}},{{0.020774474},{0.120937005},{-0.006742768}},{{0.04247106},{-0.010839433},{0.12920538}},{{-0.15102133},{-0.23710468},{-0.15021263}},{{-0.15670359},{-0.25171837},{-0.18846798}},{{0.09017642},{0.06517681},{0.10957325}},{{-0.23764536},{-0.31533992},{-0.1822999}},{{-0.15307087},{-0.146157},{-0.03452699}}},{
{{-0.16410954},{-0.20589066},{-0.09695295}},{{0.19896413},{0.21426582},{0.23474203}},{{-0.12298111},{-0.06953443},{-0.20355253}},{{0.21417473},{0.17715605},{0.18073662}},{{0.0043679033},{0.08675217},{0.034782678}},{{0.0052512414},{-0.1010789},{-0.0017546223}},{{-0.12984066},{-0.14175092},{-0.19482145}},{{-0.22248447},{-0.16324624},{-0.13979772}},{{-0.12662755},{-0.12418821},{-0.14124526}},{{-0.06244428},{0.017707186},{-0.109800726}},{{-0.17933515},{-0.14436369},{-0.15735708}},{{-0.23888879},{-0.14828947},{-0.10861409}},{{0.024682103},{-0.012846195},{0.0026408369}},{{-0.051752623},{-0.07414021},{0.020544125}},{{-0.17288826},{-0.20084846},{-0.23821838}},{{-0.15430175},{-0.17292589},{-0.13985388}},{{-0.15232773},{-0.11135239},{-0.12310946}},{{0.203307},{0.14937545},{0.051424757}},{{-0.03047764},{-0.03742343},{0.03033872}},{{-0.045113064},{-0.15460506},{-0.020867461}},{{-0.1992081},{-0.11410567},{-0.24485916}},{{-0.11836212},{-0.13748573},{-0.13078533}},{{-0.20835938},{-0.10908095},{-0.15303214}},{{-0.12975371},{-0.17929992},{-0.12265086}},{{0.10790887},{0.0056231525},{-0.060585342}},{{0.013782346},{-0.09950268},{-0.0034196295}},{{0.07732955},{0.040357444},{-0.06508132}},{{-0.16301669},{-0.1150729},{-0.1857434}},{{-0.16945833},{-0.06888422},{-0.14986245}},{{-0.14587206},{-0.2868978},{-0.17739098}},{{-0.15040995},{-0.20868412},{-0.18085963}},{{0.12225165},{0.08016895},{-0.029974453}},{{0.18583773},{-0.07386196},{0.0025791163}},{{-0.17848586},{-0.21973981},{-0.16779992}},{{-0.008169279},{-0.08849509},{-0.039220195}},{{0.019686587},{0.0018353087},{0.036408696}},{{-0.096077174},{0.029907579},{0.04047425}},{{0.1963938},{0.19013765},{0.16571477}},{{-0.1311419},{-0.10864511},{-0.16075437}},{{-0.14607246},{-0.094229974},{-0.14025743}},{{-0.19767483},{-0.14532287},{-0.23381679}},{{-0.2402464},{-0.24275672},{-0.2400444}},{{0.055835553},{-0.0150904255},{-0.07390775}},{{-0.23707317},{-0.20915394},{-0.30744022}},{{0.15832338},{0.07749478},{0.008656687}},{{-0.20819004},{-0.18778196},{-0.06101179}},{{0.051546812},{-0.01714009},{0.05692416}},{{-0.21278098},{-0.10378503},{-0.13817598}},{{0.04708563},{-0.015770977},{0.047263872}},{{-0.19016969},{-0.14287001},{-0.21191242}},{{-0.109753415},{-0.06794432},{-0.039301477}},{{0.07800968},{0.010549275},{0.028326731}},{{-0.008529711},{0.013196464},{-0.063926905}},{{-0.1211931},{-0.1230767},{-0.17783794}},{{-0.056036383},{-0.050974526},{-0.10017008}},{{-0.18246494},{-0.19506721},{-0.14978196}},{{-0.09795912},{-0.15121786},{-0.22390258}},{{-0.12482508},{-0.1725631},{-0.12519588}},{{-0.112464845},{-0.12221293},{-0.14044397}},{{0.10895083},{0.062701024},{0.057552814}},{{-0.011350002},{0.019855853},{0.07206612}},{{-0.18365312},{-0.22060136},{-0.17706446}},{{0.16736175},{0.11132177},{0.058241926}},{{-0.051413734},{-0.049766317},{-0.083711825}}},{
{{0.1115464},{0.00032243482},{0.076377414}},{{0.024578827},{-0.0037687768},{-0.08413814}},{{-0.16117086},{-0.173312},{-0.14496183}},{{-0.066375665},{-0.08985852},{-0.06744127}},{{-0.012018672},{-0.09028145},{7.7625285e-05}},{{-0.08261099},{-0.1511803},{-0.17330272}},{{0.10138048},{0.0005617389},{0.12763253}},{{-0.04956545},{-0.11664914},{-0.06335703}},{{-0.010456414},{0.07046433},{0.11820779}},{{-0.14541999},{-0.1585252},{-0.18782121}},{{0.01675248},{0.055577323},{-0.004002623}},{{0.1210909},{0.016908312},{0.11938603}},{{-0.18734194},{-0.22005583},{-0.19385739}},{{-0.040595617},{0.0120491255},{0.031849056}},{{0.086769745},{-0.021303738},{-0.014307531}},{{0.08407437},{0.07376254},{0.06919375}},{{0.09741438},{0.06249647},{-0.008104947}},{{-0.15410845},{-0.124469236},{-0.09953792}},{{-0.042453803},{-0.013481857},{-0.036359806}},{{-0.06284874},{-0.03725112},{-0.025179049}},{{0.050021473},{0.106327996},{0.109043725}},{{0.011554675},{0.071734205},{9.4252464e-05}},{{0.051335916},{0.022237672},{-0.00824216}},{{0.075422786},{-0.011759731},{0.02699025}},{{-0.3194831},{-0.29322013},{-0.23965183}},{{-0.19701989},{-0.15862556},{-0.22508113}},{{-0.24651721},{-0.17762439},{-0.24054103}},{{0.045499016},{0.12614466},{0.10367318}},{{-0.16056064},{-0.24451955},{-0.14460455}},{{0.077011794},{-0.0070196195},{0.017193897}},{{0.04440175},{-0.03719221},{0.095692225}},{{-0.16696773},{-0.11777854},{-0.21123968}},{{-0.21297777},{-0.2240167},{-0.30463657}},{{0.040289648},{0.08718731},{0.087789156}},{{0.02243622},{0.0930988},{-0.0061563756}},{{0.0715709},{0.06802253},{0.14082019}},{{0.08431758},{0.017037202},{0.005420303}},{{-0.07096744},{-0.062323563},{-0.06503493}},{{0.011021895},{0.031169767},{0.08891226}},{{-0.05156037},{-0.10212256},{-0.040340036}},{{0.016433867},{0.040639166},{0.07305788}},{{0.014427732},{-0.011901116},{-0.012945527}},{{-0.27269337},{-0.28206506},{-0.2565123}},{{-0.09040164},{-0.079855666},{-0.115871646}},{{-0.26819998},{-0.17940794},{-0.19472824}},{{0.07338542},{0.13170949},{0.06068475}},{{-0.05890683},{-0.0666183},{-0.11000199}},{{-0.0051285373},{-0.0019559877},{0.026485357}},{{0.012329426},{0.11514042},{0.1307388}},{{0.05413076},{0.07154766},{0.1078436}},{{0.050404206},{-0.020085735},{0.05867178}},{{0.014500521},{0.015046113},{-0.038593493}},{{-0.14222574},{-0.22756828},{-0.2546842}},{{0.020592088},{0.044524223},{0.015426893}},{{0.06257493},{0.057821885},{0.024720345}},{{0.10382232},{0.11640933},{0.017823093}},{{0.05338527},{0.08084144},{0.011580665}},{{0.11288997},{0.077006266},{0.12599458}},{{0.07371681},{0.10051857},{0.053811036}},{{-0.24762917},{-0.28835294},{-0.26536745}},{{-0.2234884},{-0.24465634},{-0.21347997}},{{0.04820635},{0.13182797},{0.07646845}},{{-0.24621847},{-0.28934857},{-0.27872816}},{{0.015982004},{-0.015793694},{-0.07280586}}},{
{{-0.13964124},{-0.12550896},{-0.16985035}},{{0.017914984},{-0.039810076},{-0.08849524}},{{-0.033396255},{0.003556744},{-0.043931197}},{{-0.118876085},{-0.09718535},{-0.10206267}},{{-0.103809066},{-0.13548066},{-0.06711177}},{{-0.034512877},{-0.06523626},{-0.1419377}},{{-0.2393665},{-0.16162327},{-0.13185357}},{{-0.025120527},{-0.03493093},{-0.05666252}},{{-0.22467873},{-0.11437787},{-0.23020211}},{{0.06356838},{0.027983345},{0.015309008}},{{-0.23824283},{-0.23591855},{-0.23570208}},{{-0.2243453},{-0.20296113},{-0.10833662}},{{0.24882576},{0.18661352},{0.27097103}},{{-0.009753833},{-0.0060035097},{-0.083613105}},{{-0.13633533},{-0.2290514},{-0.16376498}},{{-0.20578828},{-0.14176056},{-0.17609349}},{{-0.20429781},{-0.24692388},{-0.17183831}},{{-0.09433343},{-0.08725908},{0.04350368}},{{-0.060197573},{-0.009758095},{-0.0851589}},{{-0.18725808},{-0.13066919},{-0.20287728}},{{-0.18201867},{-0.17403576},{-0.116770975}},{{-0.18304},{-0.15841237},{-0.08248701}},{{-0.150952},{-0.15005368},{-0.12786052}},{{-0.16479227},{-0.15089409},{-0.12165422}},{{-0.06255831},{0.042914513},{0.04253597}},{{0.036100574},{0.0042300285},{0.0751776}},{{0.032617167},{0.04940523},{-0.013583779}},{{-0.19324578},{-0.13664718},{-0.19965525}},{{0.08049256},{-0.02706743},{-0.036736183}},{{0.07586982},{0.026159912},{0.004763732}},{{-0.13779436},{-0.16064909},{-0.13664274}},{{-0.07487132},{0.027651446},{-0.047375906}},{{0.061775226},{0.03471637},{0.021420231}},{{0.27661288},{0.26880825},{0.22307926}},{{-0.16586946},{-0.14360835},{-0.080200605}},{{-0.07032874},{-0.111061685},{-0.04765251}},{{-0.070930876},{-0.118552014},{-0.08140327}},{{-0.062603384},{-0.023700945},{0.046007726}},{{-0.24032602},{-0.11821706},{-0.25355124}},{{-0.0669139},{-0.111004725},{-0.23776962}},{{-0.17399107},{-0.23558374},{-0.24026181}},{{-0.13166937},{-0.19870676},{-0.19758761}},{{0.016268449},{0.10514351},{0.026266668}},{{0.14384957},{0.18615153},{0.16315627}},{{-0.056045983},{-0.06294416},{-0.03229929}},{{-0.24536516},{-0.25218388},{-0.23289634}},{{0.082461335},{0.15263094},{0.112468414}},{{-0.12546714},{-0.14650437},{-0.20579363}},{{-0.054181844},{-0.09066058},{-0.12891592}},{{-0.14981273},{-0.1431906},{-0.25219133}},{{-0.056269478},{-0.021887885},{0.0067555583}},{{-0.07501087},{-0.12589857},{-0.13196725}},{{-0.08878651},{-0.15306227},{-0.21567687}},{{-0.22355314},{-0.15888058},{-0.16895649}},{{0.0022871606},{-0.0030776928},{-0.07753164}},{{-0.16399711},{-0.1859813},{-0.16087748}},{{-0.211161},{-0.124285765},{-0.23615009}},{{-0.23784238},{-0.19097796},{-0.21916585}},{{-0.25792977},{-0.17743786},{-0.23554218}},{{-0.017735764},{0.09621321},{0.10765369}},{{0.022803262},{-0.0055472963},{0.06040816}},{{-0.116161846},{-0.11388229},{-0.22507331}},{{0.032982923},{-0.020995904},{-0.036416154}},{{0.22229408},{0.14076145},{0.12976322}}},{
{{-0.09808814},{-0.061175156},{-0.06824013}},{{-0.022528972},{-0.077474155},{-0.026953993}},{{-0.06301933},{-0.04278983},{-0.1333055}},{{-0.039361093},{-0.085863456},{-0.026260337}},{{-0.01830365},{-0.05419739},{-0.066814594}},{{0.04001415},{0.034772884},{0.023561826}},{{0.04277132},{-0.012166085},{-0.00703936}},{{-0.031391863},{-0.06908628},{0.015339315}},{{-0.07711513},{-0.10441723},{-0.010708785}},{{-0.07871812},{-0.13376915},{-0.044234525}},{{0.002434578},{-0.0752483},{0.0020105364}},{{-0.02379071},{-0.06251538},{0.008342366}},{{-0.15614098},{-0.0443132},{-0.14495198}},{{-0.028790811},{-0.09829272},{-0.09915847}},{{0.02238336},{-0.06175573},{0.011875693}},{{-0.052419946},{-0.023164542},{-0.088193454}},{{0.028789008},{-0.07209946},{-0.064745836}},{{-0.08870753},{-0.09444906},{-0.10067623}},{{-0.0960144},{-0.04580613},{0.030072551}},{{-0.069314465},{-0.08749393},{-0.059176385}},{{0.015008482},{-0.04106228},{-0.0026165096}},{{0.022554167},{-0.0301797},{-0.03411588}},{{-0.017380148},{-0.077005215},{0.024551297}},{{0.01102764},{0.0318716},{-0.07372773}},{{-0.084447086},{-0.018742053},{-0.03957739}},{{-0.015359878},{0.029305967},{-0.0334653}},{{-0.02279035},{0.021319106},{-0.035109133}},{{0.039713863},{-0.07159509},{-0.08944498}},{{0.1576789},{0.095823005},{0.18101656}},{{0.24878028},{0.20879813},{0.14248201}},{{-0.02086489},{0.01933376},{-0.019737156}},{{-0.2168439},{-0.17689343},{-0.22648002}},{{-0.0036343269},{-0.01702272},{0.059016608}},{{0.0038367824},{-0.014776014},{-0.023351815}},{{0.0037053162},{0.0054528117},{-0.04690115}},{{-0.058976807},{-0.1689123},{-0.11260114}},{{-0.043014813},{-0.035288356},{-0.08090784}},{{-0.079802155},{-0.114483416},{-0.02877079}},{{0.043663558},{-0.0072340025},{0.009085142}},{{-0.11109242},{-0.16409722},{-0.08569642}},{{0.010465869},{-0.015590039},{-0.07888554}},{{-0.009701585},{-0.03354879},{-0.07560323}},{{-0.08705869},{0.015342236},{-0.06201745}},{{0.29149425},{0.207083},{0.20901969}},{{-0.17911804},{-0.081421904},{-0.087176755}},{{-0.094703756},{-0.014032949},{-0.040382292}},{{0.23685491},{0.2324224},{0.18770654}},{{-0.01931089},{-0.10503057},{-0.10259232}},{{0.0056133033},{-0.06554258},{0.003327279}},{{0.04830683},{-0.070468575},{-0.067249425}},{{0.0041370047},{-0.01978089},{0.046706226}},{{0.049384754},{0.047040608},{-0.014497964}},{{-0.064936355},{-0.06374193},{0.016471349}},{{-0.052374102},{-0.105101734},{-0.060777374}},{{-0.1585797},{-0.1213937},{-0.13954705}},{{-0.04442116},{-0.06930017},{-0.024250984}},{{-0.0032041166},{-0.0027575062},{-0.07481348}},{{-0.0013345542},{-0.03932306},{-0.0052909153}},{{-0.059799735},{-0.094493255},{-0.029267171}},{{-0.16737005},{-0.254271},{-0.21506934}},{{-0.04281311},{-0.1596025},{-0.004079364}},{{0.0030317854},{-0.05347672},{-0.111728474}},{{-0.12721734},{-0.038993783},{-0.016317567}},{{0.40649197},{0.36586666},{0.3200775}}},{
{{-0.058226384},{0.042410832},{-0.07830253}},{{-0.25809115},{-0.17386393},{-0.22677188}},{{-0.4020562},{-0.4083262},{-0.33693936}},{{-0.30143473},{-0.2859184},{-0.20173141}},{{-0.29210174},{-0.19794774},{-0.24807714}},{{-0.31906512},{-0.3748617},{-0.32137957}},{{0.0069264118},{0.0028806543},{0.027377052}},{{-0.18607374},{-0.1961361},{-0.24694385}},{{-0.06374963},{0.01975428},{-0.053450666}},{{-0.07763896},{-0.09613422},{-0.17738967}},{{-0.042402394},{-0.041580897},{0.04286212}},{{-0.06724238},{0.012432735},{-0.039467517}},{{-0.247079},{-0.26111472},{-0.21113648}},{{-0.08161129},{-0.13088179},{-0.13450812}},{{-0.015403356},{0.019991785},{0.028739491}},{{-0.01864556},{-0.049049765},{0.047330875}},{{-0.032835692},{0.0030452036},{0.022641335}},{{-0.4441928},{-0.40302768},{-0.3956131}},{{-0.33148244},{-0.35492912},{-0.32622445}},{{-0.20145537},{-0.114891954},{-0.17660865}},{{-0.06686348},{-0.07999922},{-0.06690078}},{{-0.063434504},{-0.13748585},{-0.06061892}},{{-0.06110796},{0.011566904},{-0.0013903879}},{{0.011001311},{-0.025867973},{0.011895369}},{{-0.3589463},{-0.30839303},{-0.40252146}},{{-0.35559785},{-0.35002604},{-0.38961145}},{{-0.2465957},{-0.24722819},{-0.30487302}},{{0.017196173},{-0.047962047},{-0.059471585}},{{-0.36875084},{-0.40530038},{-0.47151682}},{{-0.21440731},{-0.18461247},{-0.14690219}},{{-0.12052008},{-0.0049521723},{-0.020463582}},{{-0.14533576},{-0.12011345},{-0.08956229}},{{-0.29692912},{-0.38116404},{-0.3455268}},{{-0.03117229},{-0.02264807},{-0.047644082}},{{-0.09782966},{-0.059790507},{-0.07756849}},{{-0.0847646},{-0.07847545},{-0.004768149}},{{-0.11520553},{-0.08711197},{-0.013544765}},{{-0.13145877},{-0.026217204},{-0.1421935}},{{-0.03773903},{-0.017049449},{-0.029836142}},{{-0.21114902},{-0.18719159},{-0.23110414}},{{-0.0038892606},{-0.035223596},{0.012014449}},{{-0.0026049896},{-0.032653335},{-0.009905553}},{{-0.28482962},{-0.24152097},{-0.35996264}},{{-0.13544522},{-0.11118173},{-0.10164526}},{{-0.29270944},{-0.30875024},{-0.25399524}},{{-0.10339596},{-0.02185626},{-0.05012351}},{{-0.14641964},{-0.27499256},{-0.2163367}},{{-0.07599202},{-0.048008602},{0.0013674791}},{{-0.09318453},{-0.057755377},{-0.11036621}},{{0.021585051},{0.014537958},{-0.01375715}},{{-0.24418497},{-0.17075793},{-0.20696384}},{{-0.24041155},{-0.273037},{-0.20950897}},{{-0.4200831},{-0.46570063},{-0.494579}},{{-0.023112865},{0.015025017},{0.02809454}},{{-0.037439518},{-0.08604383},{-0.08495563}},{{-0.10456145},{-0.07252202},{0.03208183}},{{-0.06459707},{-0.0023945433},{-0.064664215}},{{-0.06624827},{-0.09966082},{-0.04952547}},{{-0.0587616},{-0.01942179},{0.017473452}},{{-0.2115872},{-0.2553673},{-0.19593784}},{{-0.25440165},{-0.30486345},{-0.33924338}},{{-0.05802216},{0.011823411},{0.04704028}},{{-0.31222522},{-0.32254723},{-0.317208}},{{-0.14978269},{-0.21930176},{-0.117735565}}},{
{{0.05081834},{-0.053564414},{0.035344914}},{{0.1187527},{0.12315516},{0.018080637}},{{0.0053041377},{0.06884898},{0.014298755}},{{0.05170922},{0.070389666},{0.0619754}},{{0.15263431},{0.07638109},{0.05462286}},{{0.17191036},{0.14294036},{0.12983051}},{{0.025155531},{0.05763025},{-0.0022786697}},{{0.1320584},{0.102677636},{0.13048254}},{{0.010314354},{-0.047191154},{0.008801154}},{{0.05217068},{0.052580502},{0.01921687}},{{0.009385104},{-0.059845906},{-0.004916023}},{{0.0358137},{0.00041389288},{0.03438811}},{{0.06844762},{0.07602099},{0.024005057}},{{0.064331636},{-0.0275851},{0.0035748724}},{{-0.018481081},{0.008607501},{-0.004892166}},{{-0.007675844},{0.05907826},{0.07552194}},{{-0.029059049},{-0.032793656},{0.019243328}},{{-0.0013048481},{-0.0358215},{-0.031391855}},{{0.1842715},{0.14369333},{0.18021016}},{{0.03273654},{0.08459053},{0.048387866}},{{0.05547613},{0.05357475},{0.046772625}},{{-0.060525972},{0.015472674},{-0.06418098}},{{-0.010430529},{0.07200462},{-0.012837972}},{{0.052378286},{0.0048361737},{0.065607585}},{{0.064127855},{0.11217522},{0.09050994}},{{0.05134052},{0.08138491},{0.016753461}},{{0.091666944},{0.08165758},{0.0034318515}},{{-0.051040612},{0.026699074},{0.005479117}},{{0.12764339},{0.06820088},{0.07787265}},{{0.049225807},{0.028517367},{0.12571791}},{{0.044689007},{0.07144631},{-0.0029201794}},{{0.014633399},{-0.061253678},{-0.031703074}},{{0.10613252},{0.11272176},{0.10228665}},{{0.092188425},{0.041367173},{0.08929905}},{{0.048777897},{0.010318509},{0.0074485787}},{{0.090937436},{0.07840886},{0.07922667}},{{0.041279208},{0.034033976},{0.12021859}},{{0.07309648},{-0.059969448},{0.025629906}},{{0.040598165},{0.055388413},{0.05204541}},{{-0.07768213},{-0.10457491},{-0.14152388}},{{0.06991978},{-0.01502048},{0.07761507}},{{-0.022925764},{0.06294869},{-0.021215184}},{{0.046013687},{-0.020571832},{0.0031134814}},{{-0.1516329},{-0.14785983},{-0.1834137}},{{0.11934894},{0.13667922},{-0.0039253645}},{{-0.033564422},{0.056171406},{0.0944172}},{{-0.0659135},{-0.07178616},{0.021371016}},{{0.008313649},{0.06613915},{0.072558634}},{{0.09771194},{0.0941013},{0.15653557}},{{-0.02061152},{-0.042262785},{0.056312658}},{{0.15631604},{0.09546497},{0.20150223}},{{0.12032054},{0.22104079},{0.20328516}},{{0.07617822},{-0.00990526},{0.01414802}},{{-0.003966835},{-0.04394957},{0.0660636}},{{0.03457725},{-0.018748231},{0.072912425}},{{0.03631101},{0.07216001},{0.039470203}},{{0.045417257},{0.06918079},{0.045217495}},{{0.07245695},{0.03514352},{0.031246208}},{{-0.030323934},{0.010996793},{-0.03723686}},{{0.08393536},{0.11249029},{0.0720776}},{{0.056081373},{0.12642555},{0.108670704}},{{0.037876282},{-0.0041198405},{-0.034270316}},{{0.10824999},{0.05418514},{0.034573883}},{{-0.10093025},{-0.05040785},{0.000260695}}},{
{{-0.15589768},{-0.16026367},{-0.14596611}},{{-0.060134117},{-0.14044404},{-0.14097846}},{{0.0033009367},{0.057883423},{0.057544835}},{{-0.04990303},{0.057059668},{-0.028737605}},{{-0.014569963},{0.039407246},{-0.020047728}},{{-0.0056737224},{-0.014156425},{0.07201834}},{{-0.1952556},{-0.14387015},{-0.20329337}},{{-0.111352794},{-0.08509119},{-0.008314743}},{{-0.14319585},{-0.17751448},{-0.18411276}},{{-0.04052079},{0.005446552},{-0.07499272}},{{-0.086913355},{-0.19117938},{-0.18592294}},{{-0.20231152},{-0.14027911},{-0.14406627}},{{0.005681762},{0.00069401413},{0.083916575}},{{-0.059255395},{-0.19398428},{-0.10625134}},{{-0.20243095},{-0.15503156},{-0.13909176}},{{-0.09181174},{-0.16833235},{-0.21247426}},{{-0.16809988},{-0.16208713},{-0.12202629}},{{-0.11634817},{-0.0843014},{0.031251702}},{{-0.009167629},{0.033671547},{0.00018432201}},{{-0.108077906},{-0.05689716},{-0.12348968}},{{-0.1219543},{-0.12405178},{-0.15126267}},{{-0.16438574},{-0.08588798},{-0.13183954}},{{-0.16872661},{-0.1316461},{-0.21855523}},{{-0.2134585},{-0.1273365},{-0.1667984}},{{-0.039182052},{0.03406359},{0.004348747}},{{0.08735167},{-0.019584032},{0.01296784}},{{0.0069159735},{0.08831417},{0.09147668}},{{-0.18479213},{-0.13705602},{-0.09276586}},{{0.026949896},{-0.026359377},{-0.022665586}},{{-0.014694304},{-0.03870862},{0.019204095}},{{-0.07080259},{-0.13723466},{-0.10111428}},{{-0.064700216},{-0.017987227},{-0.11090996}},{{-0.039337482},{-0.006843411},{0.077339426}},{{0.0887466},{-0.017774643},{0.0697621}},{{-0.13482426},{-0.0077776955},{-0.05162003}},{{0.0014056832},{-0.10122214},{-0.08656202}},{{0.0024297275},{-0.032520186},{0.029569134}},{{-0.08174178},{-0.043572158},{0.011112954}},{{-0.13161531},{-0.1236298},{-0.22084701}},{{-0.16730316},{-0.12615365},{-0.07246441}},{{-0.11287499},{-0.1664109},{-0.21408828}},{{-0.13655585},{-0.09338508},{-0.15412693}},{{-0.01828158},{0.020210415},{0.05816014}},{{0.12097704},{0.10465505},{0.11046877}},{{0.05991373},{0.07354491},{0.012994551}},{{-0.18697229},{-0.16304936},{-0.16133042}},{{0.09633202},{0.040679693},{0.036268964}},{{-0.13631104},{-0.15228364},{-0.10133079}},{{-0.040545106},{-0.06404761},{-0.10083352}},{{-0.11164761},{-0.19484077},{-0.10076017}},{{-0.11352075},{-0.051004566},{-0.019399984}},{{-0.09444654},{-0.016759891},{-0.04805935}},{{-0.04195141},{-0.022863347},{0.0684644}},{{-0.14619808},{-0.13750198},{-0.2219733}},{{-0.09344899},{-0.1756362},{-0.16942193}},{{-0.13220116},{-0.14638157},{-0.12690406}},{{-0.10126282},{-0.18816829},{-0.1613305}},{{-0.16292872},{-0.22197008},{-0.10805579}},{{-0.12112559},{-0.21332596},{-0.22439378}},{{0.08210672},{0.08303332},{0.0056447177}},{{-0.04281544},{0.055137843},{0.045811232}},{{-0.12801978},{-0.2301561},{-0.12412029}},{{0.036998045},{0.028696349},{0.08822245}},{{0.029546363},{0.1136137},{0.043859486}}},{
{{-0.11111581},{-0.17691517},{-0.13407974}},{{0.09206683},{-0.0019128608},{0.12344556}},{{0.023781445},{-0.10894245},{-0.06270267}},{{0.055769842},{0.08244537},{0.11532269}},{{-0.054087725},{-0.019700164},{-0.060162976}},{{-0.04478121},{-0.032449756},{0.029123059}},{{-0.16260168},{-0.2361119},{-0.2348935}},{{-0.02605472},{-0.021856312},{-0.010450729}},{{-0.18435198},{-0.11246947},{-0.17604478}},{{-0.02960966},{-0.1167622},{-0.14443406}},{{-0.2290849},{-0.117059745},{-0.11499744}},{{-0.24041589},{-0.10566537},{-0.10819484}},{{0.07864408},{0.10348085},{0.05198386}},{{-0.13480783},{0.00383635},{-0.074110925}},{{-0.16340025},{-0.23914285},{-0.1909341}},{{-0.15537913},{-0.14116831},{-0.11659658}},{{-0.19347595},{-0.18851021},{-0.15887544}},{{0.056464117},{0.006625693},{0.0760104}},{{0.035112005},{-0.026462462},{0.04221819}},{{-0.07232728},{-0.09672317},{-0.15698646}},{{-0.13447455},{-0.12971605},{-0.14544833}},{{-0.15485592},{-0.08570682},{-0.11593051}},{{-0.24084453},{-0.1638871},{-0.112485535}},{{-0.24852435},{-0.1648077},{-0.20816687}},{{0.039604135},{-0.005004448},{-0.07450723}},{{0.03305041},{0.03329647},{0.027231032}},{{0.048041146},{-0.068581834},{0.019764205}},{{-0.16377656},{-0.23087592},{-0.13318218}},{{0.011376274},{0.041857928},{-0.037905015}},{{-0.08568163},{-0.08784662},{-0.125525}},{{-0.17310429},{-0.113301165},{-0.18550776}},{{-0.06529121},{0.03376394},{-0.0040731477}},{{-0.017677782},{-0.06890377},{0.024445359}},{{-0.12714666},{-0.08019751},{-0.080114275}},{{-0.1759747},{-0.11614432},{-0.111586794}},{{-0.016764749},{0.03736743},{0.050743762}},{{0.0063768243},{-0.021187862},{-0.008493258}},{{0.04871009},{0.08940937},{0.019109165}},{{-0.18490805},{-0.16577455},{-0.15732309}},{{-0.1926116},{-0.16771118},{-0.16658047}},{{-0.17687114},{-0.22623682},{-0.15270439}},{{-0.19243114},{-0.15921828},{-0.18029642}},{{0.02105632},{-0.10256015},{-0.045773566}},{{-0.12834577},{-0.063729465},{-0.08186851}},{{0.05649665},{0.032065738},{-0.0026039297}},{{-0.16846637},{-0.1463861},{-0.12917909}},{{-0.007049923},{0.04313497},{-0.0069759013}},{{-0.24660201},{-0.19255298},{-0.21055426}},{{-0.1521312},{-0.09459386},{-0.053325366}},{{-0.15988418},{-0.11830227},{-0.15538971}},{{-0.04787495},{-0.04825108},{0.040343836}},{{0.034236252},{0.031001568},{0.09743338}},{{-0.07614205},{-0.018345542},{-0.002591843}},{{-0.1568856},{-0.19933565},{-0.18552512}},{{-0.14541416},{-0.02996715},{-0.14412276}},{{-0.112965},{-0.21276997},{-0.11768014}},{{-0.19768928},{-0.19111004},{-0.14076643}},{{-0.18478288},{-0.10608615},{-0.13037528}},{{-0.17402935},{-0.24273147},{-0.13748945}},{{-0.0049179443},{0.03700572},{0.050390564}},{{0.0088600805},{-0.018700259},{-0.021547556}},{{-0.14350782},{-0.14708358},{-0.19923203}},{{0.115806},{0.07522228},{-0.041040722}},{{0.025564345},{-0.020055296},{-0.052867968}}},{
{{-0.107634336},{-0.2381682},{-0.18412869}},{{0.025415946},{-0.051101405},{0.001562535}},{{-0.0840228},{-0.043502647},{-0.046189405}},{{0.07456001},{0.030900585},{0.11405767}},{{-0.23930328},{-0.29622328},{-0.16625872}},{{-0.15306808},{-0.15227103},{-0.03377399}},{{-0.20251468},{-0.17862234},{-0.08989776}},{{-0.0278828},{-0.08296048},{-0.026027972}},{{-0.119093224},{-0.112846985},{-0.100298606}},{{-0.05237811},{-0.0053936914},{-0.02027211}},{{-0.15473387},{-0.14833045},{-0.18207982}},{{-0.10955615},{-0.07566929},{-0.09928573}},{{-0.07216006},{-0.06928894},{0.016581602}},{{-0.25429127},{-0.26187637},{-0.24730144}},{{-0.12664458},{-0.14982718},{-0.1402364}},{{-0.22178598},{-0.2228636},{-0.1876215}},{{-0.09899555},{-0.10188629},{-0.22632265}},{{-0.079408295},{-0.16911884},{-0.06128761}},{{-0.19178487},{-0.15341511},{-0.120237894}},{{-0.22541653},{-0.23508355},{-0.097947374}},{{-0.10916463},{-0.20533094},{-0.13071741}},{{-0.11381867},{-0.03563549},{-0.10993438}},{{-0.113251746},{-0.15935679},{-0.12284295}},{{-0.1389353},{-0.11065558},{-0.22883984}},{{0.051996596},{0.04093402},{0.15813188}},{{0.06973738},{0.118983805},{0.048339184}},{{0.11351271},{0.1125051},{0.11651692}},{{-0.18092267},{-0.16529387},{-0.11357733}},{{0.08986858},{0.035985455},{0.16702892}},{{0.035149295},{0.05639669},{0.012555341}},{{-0.08898277},{-0.07635587},{-0.062401988}},{{-0.12219062},{-0.2294151},{-0.08554002}},{{0.095644824},{0.1274408},{0.067877136}},{{0.14318404},{0.08019526},{0.21754801}},{{-0.19263338},{-0.08848416},{-0.12433943}},{{-0.13286561},{-0.09741548},{-0.20261915}},{{-0.041581437},{-0.11583901},{-0.08490399}},{{-0.021161234},{0.060416162},{0.049631387}},{{-0.09913906},{-0.11179675},{-0.20681454}},{{-0.121130735},{-0.10891154},{-0.004471818}},{{-0.13914505},{-0.07449982},{-0.078944415}},{{-0.08222372},{-0.18241814},{-0.13206135}},{{0.029282058},{0.010598431},{0.086489715}},{{0.07682689},{0.10689929},{0.14393145}},{{-0.06554504},{-0.015875636},{-0.0063681053}},{{-0.18162513},{-0.19166781},{-0.16216256}},{{0.22830027},{0.25351697},{0.2070794}},{{-0.2111668},{-0.23002142},{-0.13567945}},{{-0.108646594},{-0.1729267},{-0.15856001}},{{-0.103526875},{-0.10917181},{-0.20614398}},{{-0.11897942},{-0.16882947},{-0.09405389}},{{-0.17730069},{-0.23464961},{-0.10977374}},{{0.032124795},{0.13271523},{0.1677061}},{{-0.22725606},{-0.17975897},{-0.1628646}},{{-0.18975},{-0.18913586},{-0.1838423}},{{-0.14237437},{-0.10031373},{-0.1485236}},{{-0.20100279},{-0.16063653},{-0.112206966}},{{-0.07980011},{-0.211911},{-0.11322494}},{{-0.12329925},{-0.21469282},{-0.14476879}},{{-0.082099944},{-0.0060346117},{0.109312244}},{{-0.014512626},{-0.034061532},{0.09125359}},{{-0.10881414},{-0.14874996},{-0.22543323}},{{-0.086654276},{0.01768575},{-0.035248734}},{{0.2934986},{0.2642799},{0.18143636}}},{
{{-0.1223499},{-0.083744034},{-0.18062176}},{{-0.37826398},{-0.2480655},{-0.2234453}},{{0.08853614},{0.16568153},{0.17724274}},{{-0.2947547},{-0.35583583},{-0.2902699}},{{-0.13546655},{-0.0405168},{-0.023435473}},{{-0.13235784},{-0.13831745},{-0.006656167}},{{-0.085166655},{-0.13892625},{-0.21283753}},{{0.065721504},{0.12922063},{0.07601158}},{{-0.0977443},{-0.09494618},{-0.09991865}},{{-0.49079326},{-0.4885248},{-0.48702565}},{{-0.07844924},{-0.08721374},{-0.17896886}},{{-0.06964937},{-0.084889546},{-0.09824324}},{{0.23680696},{0.16820148},{0.2563117}},{{-0.064906955},{-0.10291302},{0.022909392}},{{-0.12061232},{-0.13545504},{-0.15969598}},{{-0.11277165},{-0.15325369},{-0.100855015}},{{-0.07072073},{-0.0834291},{-0.13865842}},{{-0.38809377},{-0.27215818},{-0.23257002}},{{-0.0074459645},{0.009713741},{0.009765093}},{{-0.060774133},{-0.09041724},{-0.044287868}},{{-0.08520854},{-0.054641813},{-0.13890919}},{{-0.084179044},{-0.06788112},{-0.080655545}},{{-0.12309887},{-0.17764592},{-0.19253448}},{{-0.054064136},{-0.18167269},{-0.106060445}},{{-0.38946283},{-0.43351296},{-0.44373587}},{{0.048634823},{0.07055281},{0.082266495}},{{-0.505657},{-0.39478776},{-0.4568763}},{{-0.121347085},{-0.15200916},{-0.18195838}},{{-0.0012012242},{-0.008826207},{0.06111774}},{{0.100172974},{0.097931325},{0.12002198}},{{0.1832776},{0.24451332},{0.23701769}},{{-0.27346298},{-0.29621762},{-0.2862617}},{{-0.5134789},{-0.46581483},{-0.4286781}},{{0.05005021},{0.023574898},{0.0033992506}},{{-0.16489267},{-0.19913648},{-0.14987764}},{{-0.12476008},{-0.14880002},{-0.115354}},{{-0.056750085},{-0.06078465},{-0.06542805}},{{-0.41693664},{-0.3881936},{-0.36375162}},{{-0.11712342},{-0.073145114},{-0.18364467}},{{-0.043834113},{-0.11267816},{-0.0058474303}},{{-0.07907959},{-0.04276989},{-0.090251915}},{{-0.03986442},{-0.16266686},{-0.07321214}},{{0.04916656},{-0.0020819032},{-0.007369082}},{{-0.03526337},{-0.010324345},{0.016881969}},{{0.2511496},{0.18617864},{0.25751048}},{{-0.13911113},{-0.1850928},{-0.047276467}},{{-0.4477304},{-0.33834115},{-0.30703068}},{{-0.09344114},{-0.098694794},{-0.07116039}},{{-0.07872874},{-0.17138113},{-0.12093902}},{{-0.062006973},{-0.1315647},{-0.19693954}},{{0.021258906},{-0.04967855},{0.07040276}},{{-0.030628925},{-0.01632895},{0.0036171859}},{{0.13198772},{0.084636904},{0.058228318}},{{-0.1625645},{-0.1485155},{-0.090836525}},{{-0.036791444},{-0.15460584},{-0.07717361}},{{-0.058603175},{-0.08838799},{-0.17307398}},{{-0.07769366},{-0.11402885},{-0.14783755}},{{-0.12746504},{-0.16287094},{-0.14784774}},{{-0.13143903},{-0.17542179},{-0.17616129}},{{-0.20671767},{-0.14835626},{-0.19354978}},{{0.1196374},{0.085709244},{0.11923147}},{{-0.08112724},{-0.06261524},{-0.017377067}},{{0.09812698},{0.14141062},{0.088651545}},{{-0.15409671},{-0.18107015},{-0.20863016}}},{
{{-0.036361896},{-0.09797306},{0.04339591}},{{-0.20275003},{-0.102199085},{-0.2036715}},{{-0.31614318},{-0.32445058},{-0.42519408}},{{-0.09523342},{-0.13612844},{-0.12429559}},{{-0.06834776},{-0.13778077},{-0.13951862}},{{-0.30829856},{-0.2536051},{-0.21831404}},{{-0.053515546},{-0.039742112},{0.025984187}},{{-0.1620041},{-0.1804549},{-0.1496206}},{{-0.009337558},{-0.034080565},{-0.09356948}},{{-0.095015004},{-0.1854709},{-0.049962502}},{{-0.08706038},{-0.02634116},{-0.0149889}},{{-0.10888256},{0.012636381},{0.0373623}},{{-0.20543405},{-0.26524988},{-0.19959778}},{{-0.052482568},{-0.05545583},{-0.07489508}},{{-0.08071057},{-0.038163517},{0.019361654}},{{0.034357745},{-0.07608437},{0.050275717}},{{-0.017891195},{-0.10134398},{0.031985562}},{{-0.30010787},{-0.2324938},{-0.22159217}},{{-0.24567339},{-0.12557754},{-0.1412337}},{{-0.14141294},{-0.17554812},{-0.0307333}},{{-0.084009714},{0.009566437},{0.02087989}},{{-0.08982786},{-0.03972177},{-0.14482118}},{{-0.08984805},{-0.11534854},{-0.047830734}},{{-0.06390061},{-0.031658098},{0.031975087}},{{-0.23772289},{-0.3081759},{-0.19704671}},{{-0.28448814},{-0.175548},{-0.19911687}},{{-0.23197646},{-0.30299142},{-0.197171}},{{-0.06626713},{0.010663643},{-0.013695215}},{{-0.28707027},{-0.23383786},{-0.26090208}},{{-0.054090537},{-0.092123754},{-0.13459168}},{{-0.09528156},{-0.11938062},{-0.15524803}},{{-0.23079169},{-0.2613044},{-0.23003604}},{{-0.18743238},{-0.25941277},{-0.18044338}},{{-0.2824792},{-0.18663995},{-0.2333141}},{{-0.08067988},{-0.10257775},{0.022165462}},{{-0.008832408},{0.03915998},{-0.017468529}},{{-0.07909029},{-0.0752124},{0.01732035}},{{-0.23539104},{-0.1882685},{-0.16630626}},{{-0.04108096},{-0.11706641},{-0.0797262}},{{-0.24038137},{-0.22112542},{-0.15898758}},{{-0.03031596},{-0.046014823},{-0.072744265}},{{-0.06946947},{-0.10953562},{0.00920129}},{{-0.14849705},{-0.2390652},{-0.23241949}},{{-0.057144772},{-0.123207085},{-0.06491737}},{{-0.42836156},{-0.4021368},{-0.44561094}},{{-0.05382988},{-0.07980984},{0.049104843}},{{-0.3221033},{-0.28676382},{-0.18124624}},{{-0.04060747},{-0.09647673},{0.020491544}},{{-0.06655096},{0.0014117763},{0.03869771}},{{-0.06984873},{-0.018310927},{-0.07181855}},{{-0.15163693},{-0.22478735},{-0.15699859}},{{-0.11957283},{-0.044597555},{-0.14127754}},{{-0.3225684},{-0.4074121},{-0.3549011}},{{-0.07645707},{-0.054291144},{-0.051765315}},{{-0.16063611},{-0.10389502},{-0.118077695}},{{-0.04163364},{-0.03234108},{0.035543527}},{{-0.051850528},{0.021064118},{-0.016985536}},{{-0.092795834},{-0.025324732},{0.0073335674}},{{-0.12626496},{-0.040779863},{0.014722731}},{{-0.17434177},{-0.1523875},{-0.13757068}},{{-0.27280754},{-0.2755511},{-0.1778401}},{{-0.0898807},{0.0059507852},{-0.00424553}},{{-0.31841564},{-0.22151364},{-0.33050776}},{{-0.137432},{-0.14254297},{-0.08123242}}},{
{{-0.113266826},{-0.082000606},{-0.07664067}},{{0.13168664},{0.13105913},{0.049781065}},{{-0.09285609},{-0.20985892},{-0.084930606}},{{0.09705011},{0.16432713},{0.06142362}},{{-0.090332106},{-0.095858306},{-0.081816144}},{{-0.34874955},{-0.23288144},{-0.25607064}},{{-0.0053221593},{-0.007756986},{-0.021183286}},{{-0.18746655},{-0.08591004},{-0.17672151}},{{-0.011839352},{-0.07496788},{-0.13113517}},{{-0.13696598},{-0.1459788},{-0.14369008}},{{-0.03994264},{-0.07480779},{-0.002201728}},{{-0.11681013},{-0.039320923},{-0.027637742}},{{-0.09123538},{-0.057816297},{-0.108930916}},{{-0.06765699},{-0.14979589},{-0.1384552}},{{-0.12166227},{-0.10764884},{-0.026222795}},{{-0.042278506},{-0.09104632},{-0.08962027}},{{-0.08971966},{-0.052888278},{-0.057008363}},{{0.041158598},{0.020200375},{-0.002895293}},{{-0.13479987},{-0.14243253},{-0.112556554}},{{-0.18042654},{-0.13153332},{-0.0859406}},{{-0.12210457},{-0.13173486},{-0.08419157}},{{-0.106608674},{-0.09579978},{-0.14730301}},{{-0.0034743592},{-0.07207978},{-0.11492134}},{{-0.06308633},{-0.0916489},{-0.10429628}},{{-0.12994523},{-0.07542232},{-0.08423033}},{{-0.017229214},{-0.1311274},{-0.031408895}},{{-0.068382144},{-0.14187087},{-0.1354625}},{{-0.10463269},{-0.063808344},{-0.05229386}},{{-0.23757105},{-0.112551466},{-0.14417785}},{{-0.09329478},{-0.026673408},{-0.10088236}},{{-0.016751466},{-0.13948916},{0.0020832003}},{{0.048677906},{0.013816305},{0.027723886}},{{-0.10679344},{-0.051377263},{-0.056143478}},{{-0.12639716},{-0.16124685},{-0.06713142}},{{-0.073519014},{-0.107552856},{-0.050788138}},{{-0.12486177},{-0.14605331},{-0.12721077}},{{-0.054623254},{-0.022466507},{-0.026628595}},{{0.006765313},{-0.012032161},{0.11633259}},{{-0.0789047},{-0.0014373362},{-0.12396895}},{{0.046516344},{0.0026631462},{0.058142994}},{{-0.017282814},{-0.11512886},{-0.08775942}},{{-0.04350282},{-0.003790042},{-0.039212514}},{{-0.14188448},{-0.13791917},{-0.09008757}},{{0.11644849},{0.14092164},{0.14374468}},{{-0.12863827},{-0.15231213},{-0.0956758}},{{-0.040029492},{-0.09303678},{-0.047172077}},{{-0.13385525},{-0.15833907},{-0.1560082}},{{-0.055068366},{-0.0276497},{0.004953773}},{{-0.12991625},{0.00211712},{-0.0938801}},{{-0.0019556754},{-0.10046158},{-0.01101331}},{{-0.123384826},{-0.1171541},{-0.1728865}},{{-0.16757372},{-0.12524942},{-0.1368014}},{{-0.19939202},{-0.10140813},{-0.18727471}},{{-0.06553346},{-0.05280245},{-0.056553442}},{{-0.13945347},{-0.2500714},{-0.14340404}},{{-0.10596782},{-0.063647285},{-0.036473434}},{{-0.037443694},{-0.006587098},{-0.09154832}},{{-0.11492891},{-0.013756216},{-0.09399087}},{{-0.13569513},{-0.08363149},{-0.084079936}},{{-0.10168848},{-0.05577726},{-0.07507852}},{{-0.08907403},{-0.111481525},{-0.07773082}},{{-0.05197406},{-0.09943217},{-0.018738406}},{{-0.12784909},{-0.16577166},{-0.15440327}},{{0.002289819},{-0.10278854},{-0.039159525}}}};
